Word,0,1,2,3,4,5,6,7,8,9,10,11,12,13,14,15,16,17,18,19,20,21,22,23,24,25,26,27,28,29,30,31,32,33,34,35,36,37,38,39,40,41,42,43,44,45,46,47,48,49,50,51,52,53,54,55,56,57,58,59,60,61,62,63,64,65,66,67,68,69,70,71,72,73,74,75,76,77,78,79,80,81,82,83,84,85,86,87,88,89,90,91,92,93,94,95,96,97,98,99,100,101,102,103,104,105,106,107,108,109,110,111,112,113,114,115,116,117,118,119,120,121,122,123,124,125,126,127,128,129,130,131,132,133,134,135,136,137,138,139,140,141,142,143,144,145,146,147,148,149,150,151,152,153,154,155,156,157,158,159,160,161,162,163,164,165,166,167,168,169,170,171,172,173,174,175,176,177,178,179,180,181,182,183,184,185,186,187,188,189,190,191,192,193,194,195,196,197,198,199,200,201,202,203,204,205,206,207,208,209,210,211,212,213,214,215,216,217,218,219,220,221,222,223,224,225,226,227,228,229,230,231,232,233,234,235,236,237,238,239,240,241,242,243,244,245,246,247,248,249,250,251,252,253,254,255,256,257,258,259,260,261,262,263,264,265,266,267,268,269,270,271,272,273,274,275,276,277,278,279,280,281,282,283,284,285,286,287,288,289,290,291,292,293,294,295,296,297,298,299
dog,-0.11043,0.81217,0.073668,0.19023,-0.052888,0.061468,0.16076,0.41302,-0.30199,-0.90827,0.27504,-0.03189,-0.28842,0.23447,0.47679,0.50124,0.29371,0.27029,0.054745,0.098038,0.57116,0.36755,0.040734,0.34347,-0.18256,-0.28935,0.023826,-0.19401,0.24444,0.13407,-0.16494,-0.26983,-0.26234,-0.21779,-0.87528,0.73822,-0.087931,-0.010876,-0.2654,0.34668,-0.55814,0.17591,0.16926,-0.15725,-0.5043,-0.201,0.66701,-0.032518,0.045012,0.065675,-0.16061,-0.73363,0.24642,0.34325,0.21899,0.048646,-0.59987,-0.058153,-0.051694,-0.57846,0.3,0.35078,0.46646,-0.0075309,0.10455,-0.51016,-0.055987,-0.10295,-0.26476,-0.04123,-0.028371,0.51979,-0.34849,-0.47217,-0.37229,-0.03279,0.13989,0.35716,0.19305,-0.21986,0.24136,0.40976,0.37516,0.14255,-0.034143,-0.72653,-0.10832,0.68616,-0.26335,-0.42345,-0.24253,0.15778,0.14258,-0.32749,-0.34699,0.16148,0.19603,0.41639,-0.2337,0.075816,0.15899,0.0016623,-0.048301,-0.10611,-0.19326,0.14494,0.015406,0.10629,-0.036699,0.6323,0.12986,0.49902,-1.1323,-0.12636,0.064718,0.12374,-0.49712,-0.014836,0.10488,-0.49818,-0.28856,0.38949,-0.031828,-0.28625,-0.098758,-0.07699,-0.24234,0.75793,0.34835,-0.7103,0.45318,-0.34418,-0.19459,0.61478,-0.02901,-0.27864,0.38556,0.10072,0.12895,0.017992,0.3367,0.20698,-0.38049,-0.0066661,0.1154,-0.085268,-0.14608,0.44514,-0.093674,0.23639,-0.11447,1.0948,-0.057823,-0.16295,0.5588,-0.018988,-0.071374,0.21319,0.061277,0.72759,0.62747,-0.1928,0.13057,0.17426,-0.10229,0.15232,0.525,-0.21919,-0.27185,-0.54186,0.31752,0.16375,-0.29039,0.17074,-0.31814,-0.96421,-0.1161,-0.29951,0.18686,-0.45986,0.41633,-0.17583,-0.34583,-0.27244,-0.50216,0.012852,0.59838,-0.11237,0.24697,-0.49048,-0.44188,-0.16255,-0.73313,-0.37677,-0.68925,0.061174,-0.42101,-0.13153,-0.008359,-0.01836,1.3686,0.046169,0.94622,-0.015126,-0.12477,0.48754,0.22384,-0.2182,-0.23389,0.15207,-0.28718,-0.63908,-0.22383,-0.18014,-0.33548,0.53587,-0.29367,0.10866,0.063411,-0.0093424,-0.15886,0.22602,0.11925,-0.41442,-0.078062,-0.097857,0.27938,-0.18348,-0.34584,0.18489,0.17402,-0.52198,-0.43306,0.16256,0.14032,0.35124,-0.1828,-0.35984,-0.13009,0.16304,0.31734,0.0037716,-0.045498,-0.42066,-0.44419,-0.68985,-0.49359,0.070281,-0.14377,0.62508,-0.056311,0.1885,-0.056785,0.14052,1.1973,0.71894,0.54332,-0.12461,-0.11978,0.30163,-0.16273,-0.04674,-0.25249,-0.030659,-0.32271,0.32361,0.33244,-0.027819,-0.33367,-0.023444,-0.50394,-0.20587,-0.13013,-0.35884,0.045384,-0.11863,-1.7257,0.39441,-0.53179,0.58209,-0.65771,0.36849,0.23518,0.10802,-0.83159,0.61486,0.25547,-0.45289,0.51446,-0.17911,-0.12389,0.18688,-0.41102,-0.70877,-0.37501,-0.66152,0.6773,0.33936,0.57994,0.068149
baby,-0.27983,-0.14858,-0.41873,-0.24113,-0.58091,0.16146,0.025701,0.018165,-0.67718,-0.76671,0.19774,0.089103,0.35351,0.064948,-0.057356,-0.55792,0.077736,-0.51682,-0.041944,0.52541,-0.11117,0.52329,0.0026184,0.083747,-0.30025,-0.078722,-0.011496,0.10906,0.41479,-0.29797,-0.85618,0.077185,-0.58533,0.22619,-0.52444,1.098,-0.32306,0.31167,0.046629,0.080949,0.21701,-0.4633,0.53554,0.12641,-0.50702,0.15412,0.18251,-0.24449,0.22126,-0.0039347,-0.0036105,-0.62857,-0.61417,0.33385,-0.30005,-0.13905,0.48993,0.46484,0.1182,-0.55627,0.15839,0.33856,0.51946,0.3398,0.15218,-0.36906,-0.092957,-0.3234,-0.4546,0.38086,-0.32141,-0.14642,-0.57538,0.34528,0.47073,0.18814,0.56498,-0.47917,0.034157,-0.071475,-0.26216,-0.058736,0.19662,0.36023,0.027153,-0.12174,-0.29088,0.67526,-0.12433,0.061443,0.25873,0.22767,-0.50018,0.4047,-0.087556,-0.19874,-0.26488,0.046918,0.34791,-0.43475,0.56989,-0.35411,0.77141,-0.082853,-0.14689,-0.40656,0.36215,-0.11363,-0.13745,-0.13219,-0.070644,0.53154,-0.21243,0.22837,0.98224,0.36339,0.19788,0.9769,0.018122,-0.33913,-0.022903,-0.27718,0.0086178,-0.093956,-0.089285,-0.06111,0.19204,-0.34065,0.26443,-0.31886,0.5157,-0.4726,0.22567,1.0505,-0.064589,-0.056922,0.32903,-0.36636,0.19733,0.43665,0.20699,-0.02058,0.27216,0.019223,-0.15806,-0.26183,0.36349,0.53188,0.50379,0.39844,-0.97239,0.63903,0.038235,0.13764,-0.010818,-0.17908,-0.15968,-0.23963,-0.57621,0.22794,0.24294,-0.038804,0.49384,-0.088178,-0.46412,0.35342,0.2014,0.46049,-0.0384,-0.067689,-0.016953,0.9535,-0.11795,0.041663,0.027264,-0.40891,0.42596,0.092544,-0.35814,0.31036,0.40568,-0.082617,0.37486,0.023282,0.21223,0.054804,-0.044757,0.17432,0.59894,-0.27455,0.50704,0.40198,-0.4727,0.11787,-0.81915,0.49811,0.086983,0.02043,-0.06414,0.13955,1.5306,0.21592,0.70287,-0.074,-0.1768,0.014943,-0.36567,0.29634,-0.24166,-0.19989,0.0052659,-0.23496,-0.30318,0.34556,0.49226,-0.50479,0.17172,-0.5028,0.069461,-0.19375,0.19049,0.22441,-0.057543,-0.62051,0.29402,0.17744,0.25734,-0.24448,0.38276,-0.00048384,0.66232,0.1889,-0.49973,-0.3249,0.032174,0.35222,-0.22455,0.095943,-0.30879,-0.40129,-0.21121,-0.61329,0.28867,0.63015,-1.1552,-0.033063,0.2152,-0.052987,-0.14619,0.046872,-0.26891,0.58833,0.21425,0.24116,0.4144,0.22149,-0.22192,0.18012,0.46033,-0.03549,-0.010053,-0.54091,-0.34977,0.27285,-0.23401,0.37295,0.13366,-0.12468,-0.043476,0.20616,-0.33819,-0.22513,-0.12296,-0.66658,0.44038,-0.24479,-1.6725,0.046245,-0.67695,-0.23934,-0.19926,0.29364,-0.049799,0.11968,-0.69688,0.38259,0.31792,0.40792,-0.40473,0.1469,0.069286,0.01926,0.70832,-0.28314,-0.65905,-0.3579,0.44305,-0.29264,0.29602,0.32521
dress,-0.62674,-0.10394,-0.35119,0.21756,-0.2812,-0.041454,-0.20956,0.0082139,0.014152,-0.98683,0.29653,0.23973,-0.16281,0.69732,-0.28166,-0.57722,0.61489,0.18432,-0.53598,-0.026746,-0.091363,-0.000010655,0.3905,0.29741,-0.69476,-0.56674,0.046048,-0.044878,0.27778,0.11571,0.28423,-0.24554,-0.12412,0.12969,-0.91579,0.75868,0.1009,0.075075,0.37597,-0.28849,-0.091504,-0.72007,-0.0026172,-0.2264,-0.1684,-0.23273,0.18469,-0.26558,0.071328,-0.099455,0.05771,-0.14206,0.33873,-0.58049,-0.44895,-0.65174,-0.69426,-0.9766,0.28653,0.014345,0.52344,-0.39445,-0.12764,-0.035318,-0.36866,-0.78688,0.29448,-0.053418,0.27507,0.20595,0.11045,-0.17787,-0.2407,-0.26643,0.18166,0.33613,0.18843,0.24558,-0.43306,-0.4282,-0.28667,0.29037,-0.39065,-0.20201,0.73041,0.13969,0.19305,0.026546,-0.075088,0.20489,-0.53729,0.095659,0.15826,0.22857,-0.003734,-0.061572,0.31135,0.060075,0.25046,0.10783,0.69073,0.56754,-0.22793,-0.11157,-0.36071,0.18694,0.47157,0.3127,-0.0057754,0.040416,0.17807,0.73345,-0.059468,0.398,-0.1101,0.20406,0.11429,0.41487,0.15558,-0.91342,0.15613,0.33057,0.82833,0.16657,-0.011297,-0.1406,0.027715,0.17255,0.10299,-0.037639,0.15663,-0.39614,-0.14953,-0.006815,0.026054,0.3038,-0.34322,-0.23277,-0.17795,0.26048,0.05577,0.16868,-0.024158,-0.42382,-0.095212,-0.044879,-0.1938,-0.099206,0.41231,0.39928,0.010378,0.12136,0.36942,-0.71826,0.27203,-0.16864,-0.22169,-0.31295,0.55455,0.24566,0.093537,-0.24791,-0.30417,-0.10839,-0.20591,-0.1426,-0.48406,0.48612,0.28556,0.13601,-0.49919,0.015521,-0.098815,0.030341,0.13729,-0.35768,0.061841,0.68095,-0.25306,0.073388,-0.041408,0.019299,0.19628,-0.26353,0.31297,0.35845,0.42479,0.34665,0.078535,-0.4331,0.16497,-0.18932,-0.37463,0.16856,0.095496,0.18139,-0.79567,-0.27234,-0.31023,-0.90079,0.97775,0.039661,0.7141,0.71496,1.0651,-0.050777,0.49358,0.51251,-0.57751,-0.16322,-0.074272,-0.1813,0.023794,0.60541,0.049659,-0.3179,1.1442,-0.9231,-0.054919,-0.28874,0.25827,0.13271,0.33707,0.54579,-0.068313,-0.1549,0.15591,-0.008288,0.3456,0.043123,0.54711,0.089527,-0.4717,0.22176,0.56354,0.093359,0.19982,-0.33911,-0.10226,0.46815,0.40148,-0.10855,-0.27517,0.80044,-0.16396,0.86628,-0.53153,-0.49585,0.49227,-0.13488,0.24167,0.34727,-0.082801,-0.2127,0.35837,-0.63224,0.10822,0.52492,0.1153,-0.37781,-0.16894,-0.045417,0.46968,-0.30187,-0.82696,-0.51131,-0.16794,0.24929,-0.1773,-0.072442,0.034033,-0.33523,0.28609,0.043064,-0.47368,-0.024811,-1.2771,0.072154,-0.54013,-0.25883,0.4089,0.14222,0.30463,-0.2101,-0.2411,0.4229,-0.31118,0.61183,-0.22644,-0.27363,0.35295,-0.33466,-0.56336,1.1848,-0.10471,-0.58642,0.44058,0.39987,0.9989,-0.096597
boot,0.38309,0.45792,-0.22149,-0.21292,0.14639,-0.17577,-0.5036,-0.12215,-0.3521,-0.45253,-0.43133,0.39296,0.17254,-0.33616,-0.12588,-0.46685,0.28573,0.082253,0.029438,0.44038,0.17575,-0.19036,0.35113,-0.41857,-0.22362,-0.38148,0.14251,0.165,0.64682,0.66855,0.20181,0.038197,0.040596,0.014468,-0.31287,0.55028,0.1012,-0.050987,0.17347,-0.073902,-0.51424,-0.24152,0.10384,-0.28063,0.0030763,-0.16656,0.62217,0.17113,0.38255,-0.29709,-0.49881,-0.51974,0.075574,0.037163,0.07306,0.013097,-0.67026,-0.40202,-0.48143,0.48066,0.070905,-0.2371,-0.48919,-0.27284,-0.17107,0.3063,0.092885,-0.31686,0.26554,0.13714,0.3256,-0.10692,-0.055781,0.19861,0.31994,-0.42254,0.42709,-0.40806,-0.11882,-0.40195,0.76133,0.32878,0.05248,-0.63012,-0.27455,-0.44212,-0.1844,-0.20237,-0.010297,0.29441,-0.41052,0.019215,-0.14992,0.21576,0.39485,-0.26935,0.47716,0.073851,-0.35304,-0.69328,-0.27717,0.66966,-0.21769,-0.084278,-0.13348,-0.63783,0.14664,0.11074,-0.060951,0.10482,0.48654,0.068769,0.088546,-0.29767,-0.22987,-0.29784,-0.25085,-0.23235,0.11104,-0.073338,0.3645,-0.34367,0.3964,-0.40943,0.47442,0.21716,-0.36207,-0.099636,-0.069881,-0.25359,0.50119,-0.12062,-0.43434,0.68002,0.16644,-0.56008,0.29442,-0.226,0.42175,0.214,0.76422,-0.18134,-0.66024,0.049863,-0.1147,0.13627,0.30119,-0.71244,0.59272,-0.013248,0.4389,0.051981,-0.31907,-0.20742,0.28363,-0.56423,-0.18033,-0.41774,0.3164,0.59583,0.16821,-0.90691,-0.25013,-0.15417,0.66715,-0.033639,0.21694,0.17701,-0.0034146,-0.036905,0.081576,0.24213,-0.53031,-0.17665,-0.25671,-0.083278,0.50623,-0.044797,0.089547,-0.059366,0.25386,0.42374,0.35457,-0.19866,0.83502,-0.4187,0.17119,0.21149,0.51679,0.16942,0.0044876,0.094955,0.14669,-0.10116,-0.15707,0.39456,-0.31682,0.018285,0.05323,0.10135,0.85222,0.11644,0.51621,0.056876,0.23799,0.50267,-0.4183,0.02098,-0.93788,-0.25274,0.0029969,-0.073652,-0.13072,0.19529,0.30194,-0.50243,-0.46656,0.062145,-0.83156,-0.30757,-0.29413,0.027659,0.5235,0.89696,0.061726,-0.25011,-0.21301,0.10565,0.36832,-0.13414,0.20479,-0.18718,-0.60456,-0.29005,0.17733,0.035967,-0.74933,-0.091884,0.13816,0.2495,0.67242,-0.35397,-0.32189,-0.42197,-0.3559,-0.065545,0.33563,0.14132,-0.54515,-0.60316,-0.51816,0.60251,-0.16619,-0.35172,-0.0032079,-0.14748,0.20448,-0.20378,-0.15737,-0.16187,-0.2441,-0.034052,-0.25949,0.35519,-0.28154,-0.52067,-0.58837,-0.23657,0.15973,-0.1909,-0.38417,-0.41732,-0.49612,0.0016225,-0.81778,-0.3832,-0.91639,0.30445,-0.89161,-0.095042,-0.23094,-0.6528,-0.36998,0.2626,0.15205,0.31858,-0.27179,0.12632,-0.32546,-0.73206,0.29337,-0.70808,0.0030692,-0.10336,-0.069965,-0.33703,-0.31231,-0.13057,0.029618,0.29126
pig,0.21362,0.17647,-0.32418,-0.64928,0.15753,0.21818,-0.14825,-0.027695,0.092059,-0.19711,0.029921,-0.42784,-0.57368,0.73983,0.05964,0.5857,0.19682,0.1328,0.28706,0.18783,0.016038,0.23815,0.038606,0.016966,-0.55304,-0.19813,-0.041598,-0.24803,0.90989,0.17459,-0.95552,0.21949,-0.34717,0.55457,-0.12072,0.15909,-0.028689,0.073545,-0.13876,-0.040543,-0.24913,0.20299,-0.37224,-0.60842,-0.2934,-0.47977,-0.075069,-0.52263,0.080633,0.25428,-0.01122,0.89575,0.30142,0.029663,-0.37374,-0.26138,0.15761,0.11299,-0.15539,-0.46506,-0.3015,-0.16529,0.19496,-0.3842,-0.18834,0.25005,0.48686,-0.2335,-0.221,0.87175,0.063965,1.0459,0.095207,-0.026051,-0.43592,-0.25375,0.38847,0.30065,0.37849,-0.30381,-0.2787,0.0020006,0.059261,0.17358,-0.00019762,-0.19156,0.062112,0.19307,-0.08175,-0.36798,0.071795,-0.25533,-0.060395,0.14783,0.0028485,0.24626,-0.24545,0.18572,-0.4803,0.56703,0.12571,0.082688,0.30917,-0.67681,-0.20369,0.20659,0.25397,0.044659,0.028295,0.8186,-0.38347,0.41868,-0.92426,0.42326,0.55733,-0.1634,-0.34058,0.37253,0.25956,-0.024825,-0.52576,0.10813,-0.060993,0.26504,-0.0064746,0.48014,-0.49508,0.24294,0.0043664,-0.57438,0.29961,0.38449,0.024845,0.3735,0.22398,0.1429,-0.054463,-0.18499,-0.084583,0.37263,0.40135,0.2361,-0.36843,-0.77074,-0.12666,-0.53738,0.028833,-0.44793,-0.47797,0.0083813,-0.82281,0.70078,0.0016424,-0.16155,0.48357,0.19621,-0.63381,-0.000084105,-0.25259,0.10678,0.72211,0.59176,-0.045367,0.071513,-0.070733,0.025374,0.074105,-0.32599,0.4741,-0.4153,0.22433,0.41931,0.069968,-0.36429,-0.0071643,-0.42306,-0.13356,-0.04167,0.05277,-0.088719,-0.29119,0.14333,0.0027445,-0.31261,0.029648,-0.62798,0.40237,-0.030857,0.72038,-0.66514,-0.13912,0.39371,-0.34641,0.18689,-0.080988,0.33991,-0.070397,-0.79391,-0.85906,-0.21019,0.61754,0.57582,-0.094008,0.16722,0.39618,0.30224,0.30583,-0.079267,0.30925,0.25968,-0.035246,-0.35458,0.11382,-0.20367,0.07836,0.33356,0.28102,-0.43184,0.28133,0.099573,-0.6595,-0.21226,-0.12764,-0.56215,0.35664,-0.49676,0.033149,0.044666,-0.12316,0.3286,0.35026,-0.13189,-0.3017,-0.0076735,0.097273,0.20106,0.51429,-0.66697,0.17097,0.031444,0.0057893,-0.38445,-0.39377,-0.0035347,-0.3906,-0.33114,-0.21596,0.35287,0.065743,-0.065939,-0.20345,0.083084,-0.24425,0.29705,1.404,0.69196,0.1789,0.14579,-0.44722,-0.37488,0.26594,-0.0852,-0.078048,-0.13341,-0.14921,0.64433,-0.065589,-0.33792,-0.60031,0.32164,-0.080659,0.32306,0.28943,-0.18311,-0.35779,-0.028925,-1.2213,0.08683,-0.75066,-0.46632,-1.1641,-0.25652,-0.55742,0.32373,-0.34273,0.77699,0.31636,-0.35441,0.08514,-0.2371,-0.46499,-0.069627,0.14382,-0.035965,-0.21379,-0.55322,0.1602,0.023198,0.21405,0.26071
boy,-0.29973,-0.10202,-0.41355,-0.23211,-0.22184,0.19936,-0.052565,-0.075111,-0.28006,-0.37557,-0.024574,0.21675,-0.15359,0.059833,-0.17297,-0.011219,-0.40388,-0.41359,0.17666,-0.057639,0.02452,0.96054,-0.47304,-0.23099,-0.26022,-0.45139,0.28963,-0.24606,0.1675,0.15718,-0.3776,0.25756,-0.17091,0.011648,-0.4357,0.38048,-0.24886,0.077578,-0.16279,0.48851,0.3141,-0.58471,0.086057,-0.05205,-0.077833,0.25113,0.18934,-0.77035,0.091445,-0.15744,0.18958,-0.44857,-0.28676,0.75436,-0.3836,-0.10954,-0.1343,0.1471,0.10592,-0.70471,0.34129,0.43086,0.42201,0.26919,-0.18816,-0.39071,0.10955,-0.37502,-0.53663,0.16496,0.13647,-0.27518,-0.57768,0.038157,0.021975,-0.31067,-0.02432,0.1331,0.33254,0.28542,0.48114,0.38516,0.42604,0.11398,-0.24768,-0.0067404,-0.30656,-0.084039,0.031691,0.26669,-0.29982,-0.15799,-0.50505,0.32157,-0.028634,0.032699,0.63605,0.3021,-0.015586,-0.53445,0.35045,-0.077435,0.23344,0.093149,0.37815,0.11407,0.46091,0.16582,0.20498,0.10393,-0.2316,0.44202,0.4594,0.0021626,0.58144,-0.094572,-0.19038,0.085934,-0.027673,-0.032247,-0.11759,-0.047023,-0.18422,-0.41095,0.038641,-0.32468,-0.35991,0.16414,0.66579,-0.40467,0.025143,0.15197,0.20623,0.70654,0.35081,0.06081,0.45754,-0.32791,-0.24152,-0.010337,0.69438,-0.19151,-0.49623,-0.48727,-0.53432,0.0092418,-0.094648,0.3734,-0.016354,-0.12722,-0.38008,0.43849,0.14366,0.7438,0.30643,0.11702,-0.060529,-0.079202,-0.21663,0.42707,0.75658,-0.30882,0.025095,0.074963,-0.20072,-0.16813,0.013808,0.47374,0.0086192,-0.43025,0.0040262,-0.099194,-0.90322,0.36557,0.15636,-0.12354,0.29429,-0.27028,-0.15489,0.24746,0.033515,-0.045159,-0.27708,0.43667,-0.049558,-0.24902,-0.17564,-0.24223,0.64745,0.20029,-0.25236,-0.034722,0.0064774,0.30915,-0.52747,0.28263,-0.20838,-0.41637,-0.33949,-0.05128,2.0444,0.44927,0.5334,0.20114,-0.082688,-0.16812,-0.087912,0.22278,-0.30808,0.14367,-0.30867,-0.13294,-0.46945,0.11482,0.34446,-0.3687,-0.17442,-0.17693,0.063132,0.02676,-0.12735,0.089257,0.052465,0.004907,0.04294,0.16546,-0.044701,-0.85432,-0.42761,0.022245,0.44517,0.17425,-0.77372,-0.60984,0.20154,-0.17823,0.23283,0.0031938,-0.31697,0.01749,0.26145,-0.18562,-0.42554,0.062592,-0.26809,0.073799,0.032416,-0.35376,-0.22916,0.35091,-0.23491,0.2543,-0.22392,0.081214,0.95004,0.4781,0.015967,0.20212,-0.17039,-0.36189,-0.096862,-0.0055339,-0.41496,0.31636,0.019452,0.30044,0.02665,0.23863,-0.55074,0.39315,-0.64916,-0.77466,0.64619,-0.32919,0.4002,0.1778,-2.0037,0.069727,-0.31009,0.076044,-0.1909,0.42796,-0.17401,0.14709,0.11153,0.58603,0.0026242,0.4396,-0.44939,-0.19291,-0.1423,0.0044063,-0.16998,0.041541,-0.16269,0.00065256,0.016884,0.02963,-0.2526,0.26076
heart,-0.34981,-0.16612,0.25166,0.16095,-0.12916,0.078045,0.20735,0.003999,0.023055,-1.6012,0.17284,-0.61947,-0.4332,0.67162,0.37159,0.5262,-0.2181,0.26037,0.17245,0.47834,-0.25839,-0.2,-0.10453,0.31102,-0.60696,0.21038,0.14548,-0.6004,-0.069415,-0.55053,-0.00016099,0.87473,-0.24114,0.15913,-0.74231,0.1458,-0.25628,-0.13887,-0.413,0.43519,0.078356,-0.3276,-0.12776,-0.068237,-0.045839,-0.098144,0.26099,0.19975,-0.14821,0.40218,-0.10732,-0.14468,-0.1541,0.092779,-0.58594,-0.22161,-0.11125,0.29641,0.49845,0.025554,-0.16065,0.099583,0.69763,0.31628,0.19482,0.16177,0.38674,0.30046,0.046864,0.41791,0.11911,-0.21159,0.32998,0.61033,0.11467,-0.2116,-0.012532,-0.55784,-0.27717,-0.17516,-0.12914,-0.15099,0.44645,0.19641,-0.35597,0.13661,-0.094769,0.020041,-0.42599,0.088369,0.53436,0.35271,-0.49422,0.11196,0.32139,0.36022,0.65923,0.052991,0.22995,-0.642,0.35231,-0.11245,0.44845,-0.14522,0.2515,0.11844,0.26092,-0.21006,0.012745,-0.048818,-0.38001,0.33238,-0.17478,-0.074442,0.26967,-0.10017,-0.028187,-0.020077,-0.30807,0.0033978,-0.23199,-0.32714,0.061944,0.32113,0.053051,-0.32879,0.027043,-0.40755,-0.438,0.082641,0.61715,0.24301,0.030023,0.13077,-0.41492,0.33228,-0.42906,-0.044817,-0.33459,0.23191,0.29276,-0.25585,-0.028272,0.54204,-0.94917,-0.23318,0.041639,-0.2003,-0.47312,0.38499,-0.16556,-0.078821,0.82403,0.28218,0.57942,0.23977,-0.26995,0.47393,-0.015189,-0.055732,0.34843,-0.21698,0.53729,-0.35007,-0.32974,0.21587,0.05842,-0.26007,0.45119,0.32398,-0.38351,0.25909,-0.15896,-0.43359,-0.013813,-0.37826,0.16451,0.048945,-0.42004,-0.13316,-0.56873,0.22881,0.075582,-0.03915,0.26845,0.17079,0.029324,-0.21313,-0.42336,-0.58143,-0.067764,0.032416,0.45122,0.069005,-0.20357,0.12529,0.47806,-0.56172,-0.0010203,0.69464,1.2637,-0.090882,0.26295,0.36357,-0.73347,-0.33817,-0.27597,0.049682,-0.44351,0.1455,0.17384,-0.25876,-0.56506,-0.20106,0.33306,0.35556,0.33259,-0.73551,0.17457,0.2542,-0.61356,-0.74299,-0.05985,-0.20471,-0.083997,0.17953,-0.87423,0.21944,-0.22961,0.098922,0.22927,0.16783,0.1471,-0.47093,-0.19768,-0.27095,0.041901,-0.39485,0.1483,-0.44869,-0.15717,-0.44104,0.46095,0.10857,-0.57091,-0.26428,-0.099166,0.069808,0.053573,-0.40279,0.068246,0.27564,-0.076146,0.055237,0.51586,0.26826,0.61962,-0.13904,0.32806,-0.13728,-0.13522,-0.38781,0.06098,0.067766,0.10733,0.54541,-0.36393,-0.25041,-0.31827,0.0028201,-0.24101,-0.42635,0.48722,-0.64362,-0.36006,0.024814,-1.3953,-0.055545,0.49876,0.61515,-0.067306,0.069902,0.27615,0.81926,-0.12394,0.5142,-0.75134,-0.21739,-0.17136,-0.31256,-0.076403,-0.052628,0.26125,-0.26293,-0.19722,-0.25971,-0.026203,0.0039856,-0.24776,0.0030013
helmet,-0.027125,-0.083165,-0.25525,-0.028066,0.14484,-0.12751,-0.54924,-0.17523,-0.28676,-0.5025,0.24818,0.56715,-0.25789,0.0081611,0.13714,0.93059,-0.2502,0.15948,-0.72473,-0.31048,0.40251,0.3605,0.55192,0.25866,-0.11574,-0.72319,-0.17346,0.2462,-0.092778,0.15718,0.71581,0.0015203,0.081997,0.14265,-0.52676,-0.20033,-0.20836,-0.17706,0.25036,0.89226,-0.41098,-0.091991,0.1432,-0.86619,0.25628,-0.13894,0.13911,-0.010522,-0.10721,-0.29617,-0.77081,-0.49515,-0.3421,0.2336,-0.12279,-0.068783,-0.035496,-0.3685,0.256,0.055095,0.0078248,-0.21654,-0.63442,-0.053536,-0.51462,-0.24111,-0.6973,-0.36594,0.7264,0.15139,0.25708,0.0048417,0.13064,0.28879,0.14799,0.14205,0.23959,-0.25872,-0.39413,-0.23872,0.082412,0.42472,-0.23875,-0.12834,-0.42852,0.28661,0.23762,0.51107,-0.76627,0.25655,0.80535,0.32182,0.049004,0.4994,-0.40258,0.33423,-0.2753,0.10144,0.27849,-0.055143,0.26245,0.94806,-0.062286,0.20046,0.63767,0.0074585,0.27748,0.34078,-0.54628,-0.26202,-0.0016998,0.50873,-0.37884,0.12789,0.055818,-0.15456,-0.11007,0.14816,0.062997,-0.67474,0.42762,0.19949,0.035439,-0.30494,-0.75956,-0.33783,0.27203,0.086632,0.24156,-0.1818,0.41611,0.093056,0.059815,0.0063676,0.57371,-0.36238,0.22815,-0.15871,0.32354,-0.14618,0.030157,-0.010617,0.18613,-0.38649,0.28674,-0.032932,-0.014594,-0.20096,0.27073,-0.11935,0.33846,-0.64979,-0.3336,-0.54072,0.24155,-0.41145,0.12774,-0.61011,0.26737,0.065404,0.49243,-0.56539,-0.30895,0.090888,0.88376,-0.42196,0.23019,1.2155,-0.096514,-0.53977,0.06627,0.22897,0.42024,-0.26063,0.0073982,-0.90556,0.60237,-0.11015,0.057029,-0.40876,0.42498,-0.19374,0.30855,0.34757,0.26365,-0.41535,0.6928,0.48132,0.24939,-0.2633,0.091986,-0.23906,0.23975,0.40558,0.0015245,-0.063817,-0.58754,0.25319,0.65794,-0.071769,0.84595,0.78134,0.26502,-0.26436,0.24918,0.45204,0.46074,-0.4715,-0.51011,0.21489,0.37739,-0.025892,-0.20314,-0.069987,0.0076708,-0.45049,-0.0020066,-0.22324,-0.01251,-0.21678,0.027462,0.3549,0.17223,0.076806,0.60252,0.17419,-0.22056,-0.35796,0.38342,-0.21383,0.17277,-0.12625,-0.24166,-0.12984,-0.47396,-0.28284,0.18397,-0.50252,0.087532,0.37837,0.59118,-0.031354,0.32994,0.21337,-0.054652,0.27882,-0.71763,-0.35587,-0.15075,-0.33541,-0.033368,0.1508,0.29094,-0.72757,0.16951,0.31952,0.10996,-0.38733,-0.35492,-0.40137,-0.57969,-0.36303,0.25879,0.58477,-0.68804,0.16241,-0.72057,-0.33025,-0.64759,0.14451,-0.32348,-0.044558,-0.00096541,0.18614,-0.55058,-0.33768,-1.0866,-0.12053,-0.56952,0.11884,0.29767,-0.25075,0.018423,-0.043892,-0.29669,0.1554,-0.62587,-0.050785,0.18639,-0.43787,-0.083058,-0.13033,-0.32846,0.27473,-0.26451,-0.54864,0.25776,0.51663,0.60422,-0.14519
field,-0.061407,0.81135,-0.34448,0.012179,-0.4201,-0.38262,-0.33801,0.034448,0.084862,-1.1705,0.48359,0.19198,0.10066,-0.36585,-0.2275,0.44996,-0.60977,0.45481,-0.092689,-0.032719,-0.23749,-0.23266,-0.020376,-0.10805,0.12276,-0.12861,-0.21508,0.24315,0.5108,0.16636,0.41525,-0.46193,0.055258,0.082419,-1.1271,0.15453,0.88209,0.55305,0.082948,0.21703,0.13033,0.089165,0.14881,-0.16956,0.38529,0.084381,0.097937,0.28935,-0.12529,-0.16696,-0.1367,-0.41762,-0.38374,0.084103,-0.37285,-0.28988,0.022123,0.0096355,-0.043061,0.1007,0.093532,0.23,0.54633,-0.17355,-0.54274,-0.25167,0.13003,-0.1566,0.04234,-0.23594,-0.046476,0.25972,0.095817,-0.029601,-0.67763,-0.15121,0.35943,-0.067195,0.15127,-0.074293,0.25048,-0.49747,-0.11718,-0.03099,-0.20111,0.016953,0.18942,-0.30837,0.70275,-0.33272,0.38037,0.75017,0.072828,-0.020131,-0.11492,-0.13115,-0.74822,-0.4747,-0.16465,-0.40436,-0.11061,0.32976,-0.025612,0.1242,-0.34981,0.46998,0.38332,0.38747,-0.62829,0.59488,0.11379,-0.60881,0.16469,0.28247,-0.28553,0.43177,0.045686,0.10518,0.39361,0.4466,0.19784,0.18157,0.57639,-0.0047332,0.11302,0.35335,0.49055,-0.46328,-0.47792,0.1405,0.097613,0.22306,-0.39053,0.099796,0.14885,0.11817,0.44966,0.25901,-0.34223,-0.069392,-0.24923,-0.31845,0.24714,-0.029732,0.1821,0.067503,0.040104,0.35893,0.22657,0.074713,0.40266,-0.11464,-0.020866,-0.50876,0.35677,0.026361,0.27805,-0.10739,0.35745,-0.18344,-0.31541,-0.28866,0.22266,-0.36082,0.28023,-0.26905,-0.20817,0.71925,-0.28079,0.065619,0.50542,-0.023993,0.025857,-0.6273,0.15936,0.044393,0.60289,-0.058876,-0.58347,0.13193,-0.029943,0.7611,0.14325,0.43641,-0.19095,-0.28252,-0.21091,-0.065115,-0.63823,0.091008,-0.20244,0.56298,0.098879,-0.042619,-0.49252,0.33518,0.30816,0.43325,0.015956,-0.18276,0.97913,0.22794,-0.45156,-0.63236,0.50565,-0.11806,0.37237,0.1865,0.43133,0.15754,0.24085,0.18782,-0.50067,-0.32015,-0.45422,0.14631,-0.42488,-0.14572,0.26944,-0.33579,0.41381,-0.16945,-0.061124,0.019041,0.065462,-0.57832,-0.032218,0.13001,-0.14405,-0.23641,0.45202,0.30765,0.51143,0.16459,-0.49857,0.45267,0.08387,-0.099802,-0.67415,0.12795,0.20917,-0.12399,0.20308,0.14564,-0.82166,-0.6838,-0.44984,0.64389,-0.25097,0.25377,0.10244,0.21859,-0.58618,-0.92148,0.98659,-0.12333,-0.065526,-0.35984,-0.1705,-0.007355,0.22895,-0.58425,0.50248,-0.38141,-0.31457,-0.52327,-0.69763,-0.11605,0.61688,0.025448,0.13319,-0.62493,-0.14691,-0.1592,-0.46,0.060095,-1.9464,0.31869,0.1474,0.48178,-0.87488,-0.28782,0.30282,-0.013025,0.28058,-0.34238,-0.06405,0.10234,0.26334,-0.072377,-0.19073,-0.24461,-0.59537,0.075928,0.28281,0.46277,0.45576,-0.51389,0.12504,0.29368
pen,0.14085,0.17878,0.11528,-0.85091,0.33633,0.13771,-0.37911,-0.37984,0.40591,-0.76945,0.59396,-0.49853,0.23207,-0.14874,0.62232,0.81844,0.046142,0.4456,0.53759,-0.23569,-0.075011,-0.53415,-0.23815,-0.47008,-0.041284,-0.13632,0.73087,0.1195,0.85557,0.45472,-0.14485,-0.27211,-0.32313,0.37447,-0.74494,-0.46776,0.039667,-0.15753,-0.1482,-0.18488,-0.058271,0.56225,0.38312,-0.46522,-0.62435,0.098991,-0.2262,0.2408,0.40293,-0.054977,0.18286,0.47326,1.0098,-0.39985,-0.034004,0.012986,-0.32883,-0.11221,0.83875,-0.12372,0.083081,0.49868,0.21038,0.28962,0.023071,-0.27904,-0.22882,0.24321,-0.23835,-0.2617,0.79924,-0.272,0.19207,0.50711,-0.11447,-0.092127,0.24339,-0.036395,0.092069,-0.31647,0.26686,0.1632,0.15074,-0.13422,0.1513,-0.48729,-0.17677,0.38352,-0.58652,-0.3398,0.052326,-0.63818,0.059347,-0.24272,0.42864,-0.064227,0.22677,0.24014,0.0059439,-0.26497,0.016458,0.067732,-0.3296,0.079938,-0.21267,-0.1387,-0.25017,-0.085149,-0.16432,0.0076705,-0.35034,0.40619,0.13427,-0.19551,-0.43134,-0.071893,-0.52773,0.78378,-0.029422,-0.58967,-0.3808,-0.090413,0.066354,-0.013627,0.2828,0.7307,-0.091437,-0.3448,-0.37625,-0.11845,0.42342,-0.42067,-0.24544,-0.11925,-0.17657,-0.047765,0.069028,-0.13873,1.0787,-0.52369,0.10224,0.32311,-0.27747,0.069107,0.44978,0.21098,-0.089184,-0.33936,0.20604,-0.10124,0.28554,0.52231,-0.19397,-0.87972,0.18319,0.21244,-0.47284,0.23523,0.13315,-0.30356,-0.40116,0.67302,-0.25651,-0.0032295,-0.2827,0.14511,-0.0063228,-0.32207,-0.67674,-0.095548,-0.38078,-0.045284,-0.59491,-0.084927,-0.083325,-0.92316,0.39414,-0.18133,0.021084,0.16749,0.67816,0.066951,0.95664,0.30543,-0.30533,-0.58455,0.15215,0.3271,0.45565,0.1882,0.22373,0.18123,0.30912,-0.29663,-0.4146,-0.15837,-0.1239,-0.14432,-0.58648,0.0558,0.77422,0.087908,-0.26319,-0.015614,0.14176,-0.29546,-0.065554,-0.036786,-0.60672,0.55237,0.048195,-0.16343,0.63201,-0.15478,-0.08909,-0.16123,-0.2735,-0.28729,-0.26675,-0.078889,-0.84336,0.39415,-0.068032,-0.19257,-0.10852,-0.37425,0.14549,-0.25836,-0.21829,-0.53958,0.055724,-0.24856,-0.65126,0.22288,0.36346,0.46996,-0.73637,0.38984,0.3945,0.077772,0.21308,-0.10641,-0.3143,-0.059082,-0.093265,0.032631,0.0207,-0.0074956,-0.45385,-0.23216,0.017938,-0.60924,0.35182,0.04172,0.50602,-0.13562,0.42488,-0.43768,-0.32475,-0.42969,0.22014,0.015198,-0.29143,-0.39126,0.15254,0.45434,-0.46782,0.95162,-0.64189,0.2663,0.41432,0.097665,0.60619,-0.79877,0.4606,0.048396,-0.77241,0.19163,-0.30249,0.54785,-0.31594,-0.081222,-0.6531,-0.17182,-0.38584,0.10661,0.32796,-0.19653,-0.58382,0.42635,-0.041173,0.066448,0.32829,-0.36952,0.1529,0.2446,0.70163,0.37881,0.1103,0.43591
bike,-0.029796,-0.43119,-0.069355,-0.1848,0.07714,0.29136,0.077045,0.12447,0.040588,-0.29913,0.32524,-0.23069,0.014662,0.38186,0.38138,0.32012,0.18668,0.044653,0.10177,0.15675,0.26234,0.43724,0.15124,-0.096818,-0.21859,-0.62298,-0.10837,0.080582,-0.04713,0.043598,-0.051473,0.10207,0.6184,-0.04111,-0.73131,0.80084,-0.86031,-0.5801,-0.057198,0.32798,-0.89827,0.076463,-0.55474,-0.66232,-0.28628,0.39268,1.1483,0.12806,0.28951,0.010131,-0.23794,-0.42329,0.53317,0.24088,0.29588,0.60864,-0.12419,-0.34309,-0.4423,0.01576,0.016465,0.60159,-0.09357,-0.12078,-0.18459,0.24402,-0.31809,-0.061691,-0.099235,-0.083086,-0.097086,0.29565,0.34875,0.11366,-0.034944,-0.0081694,0.11138,-0.11707,-0.086882,-0.036146,-0.059239,0.56259,0.51797,-0.034245,-0.50439,-0.25536,0.03993,0.66424,-0.16898,0.69177,1.1935,-0.12557,0.6663,-0.76915,0.21125,-0.47584,0.46337,-0.064968,0.22525,0.020805,-0.83172,0.37241,-0.16691,-0.25276,0.022691,-0.172,0.58579,0.034491,0.093022,-0.29032,-0.74113,-0.19193,0.087161,-0.37791,0.12627,0.42851,0.38457,0.066845,0.18174,0.82598,0.042089,0.13245,0.45713,-0.53275,-0.24501,0.33454,-0.038291,0.25827,-0.45291,0.2085,0.15699,-0.12097,0.26474,0.68028,0.21946,0.05223,-0.029905,-0.29363,0.49129,-0.55349,0.10578,-0.20604,0.47778,-0.058489,-0.2253,-0.023856,-0.18661,-0.1329,0.16218,0.29665,0.20546,0.49998,-0.44374,0.018829,0.20676,-0.68429,-0.034164,0.2242,-0.24088,0.23154,0.39878,-1.0504,-0.41804,-0.3098,0.42857,-0.42103,0.64691,0.30433,0.19391,0.13739,-0.39881,-0.025147,-0.22668,0.098735,-0.19416,-0.82872,0.55392,0.03838,0.11653,-0.087753,-0.14242,0.18523,0.049912,0.27393,0.7687,-0.075662,0.62657,0.62377,0.31405,-0.12932,-0.15078,-0.032948,-0.19002,-0.28691,-0.34239,-0.17242,-0.39409,-0.01409,0.089638,-0.37943,0.58979,0.05531,0.47474,0.11799,0.42984,0.55712,-0.40937,-0.046857,-0.36835,0.24059,-0.24625,-0.083811,-0.38391,-0.18082,-0.52116,-0.092411,-0.54217,-0.12075,-0.09777,-0.24376,0.19313,-0.18901,-0.33293,-0.060385,1.2356,0.047708,0.034515,-0.051816,-0.57688,0.061407,-0.12645,-0.58566,-0.13877,-0.77216,0.78213,0.2519,-0.20294,0.28321,0.25471,-0.060755,0.29746,-0.29039,0.015884,-0.21405,-0.38215,-0.29393,-0.33316,0.22138,-0.04992,0.12535,-0.36274,-0.17098,0.094883,-0.35246,0.37053,-0.10129,-0.039881,-0.13828,0.066198,0.0099703,-0.1402,-0.39158,-0.0042308,0.38015,-0.083772,0.0075806,-0.31778,-0.0050934,-0.019692,-0.18193,-0.26611,0.45175,-0.11488,0.02627,0.1658,-0.29928,-1.3993,-0.2582,-0.14869,0.18688,0.16023,-0.79918,0.13461,0.29582,-0.72163,0.16079,0.050959,-0.10017,0.036368,-0.48571,0.17318,-0.20612,-1.1214,0.17832,-0.29186,-0.010371,-0.28383,1.0165,0.47015,-0.17529
mother,-0.34763,0.0055901,-0.42938,-0.093913,0.31563,-0.33337,-0.22065,-0.46091,-0.17201,-1.1931,0.08659,-0.26813,-0.093898,0.059885,0.02954,-0.097844,0.142,-0.78997,-0.20868,-0.1217,-0.32129,0.11282,-0.38356,0.074815,-0.093422,0.12882,-0.090537,-0.014418,-0.2945,-0.18405,-0.39166,0.85332,0.054614,0.24249,-0.60749,0.46045,-0.1743,-0.04572,-0.036323,0.11106,0.16339,-0.60025,0.35421,-0.098338,0.095847,-0.072768,0.48368,0.7253,0.22731,0.021574,0.21864,0.058727,0.3987,-0.1857,-0.50954,-0.18055,0.38556,0.052277,0.38191,-0.3953,0.038661,0.29049,0.84996,0.67388,-0.034571,-0.69516,-0.11365,-0.27067,-0.089341,0.071697,-0.34196,-0.80613,-0.42443,0.084419,0.089753,0.021961,0.23456,-0.37791,-0.35601,0.14701,-0.014186,0.16089,0.59906,0.057779,-0.44679,0.16898,0.024192,0.28484,-0.01923,0.27527,-0.36027,-0.40518,-0.48567,0.22052,-0.13798,-0.045974,-0.055178,-0.35304,0.19094,-0.28924,0.53822,-0.24386,0.22923,-0.17601,0.30871,-0.057794,0.96803,0.091865,0.14821,0.35749,-0.15229,0.81067,-0.15598,0.050374,0.18854,0.055631,0.20643,0.086364,0.34687,-0.18962,0.0046853,0.54937,-0.33053,-0.27856,-0.015136,-0.15763,0.12441,-0.47141,0.22659,-0.15309,0.39306,-0.066737,0.05888,0.18152,0.028656,0.20951,0.02085,-0.082018,-0.34346,0.45933,0.7845,0.10379,-0.09075,0.037362,-0.46264,-0.088408,0.27841,0.23497,0.17814,0.17086,-0.14297,0.011042,-0.068715,0.32499,-0.13965,0.41517,0.015573,-0.22109,0.20207,0.076657,0.71082,0.046543,0.78996,0.2549,-0.31829,0.4088,-0.53194,-0.013432,0.13156,-0.034157,-0.23487,0.42665,-0.47921,-0.0099544,-0.077395,0.069814,-0.16608,-0.61335,-0.021382,0.46864,-0.20831,0.32594,0.067235,-0.12181,-0.096006,0.26039,-0.60589,-0.12873,0.47133,-0.27311,-0.15375,-0.40491,-0.42207,-0.15162,-0.83588,0.077574,-0.027017,-0.61879,-0.29063,-0.47985,1.5985,-0.054899,0.49155,0.38129,0.57941,-0.22182,0.15324,0.30608,-0.033001,0.28655,-0.52383,0.23144,-0.24355,-0.14141,0.42329,0.23416,0.017988,-0.6964,0.090181,0.18719,0.27598,0.069079,0.14255,-0.14717,-0.45919,0.48988,0.27944,-0.31122,0.17394,0.1179,0.30424,-0.24805,-0.16296,-0.13806,-0.39682,0.25451,-0.0072381,0.42926,-0.19839,0.0055648,0.20645,-0.17331,0.08022,0.29948,-0.38687,0.10549,0.024164,-0.1313,0.12741,0.15854,-0.10986,0.25888,0.023905,0.33209,1.3037,0.31252,0.13089,0.013626,0.29018,-0.18125,-0.087153,-0.27421,-0.049557,-0.095329,-0.26819,0.53903,0.069868,-0.029688,-0.046917,-0.027291,-0.31868,-0.4384,0.31007,-0.59893,0.088931,-0.11046,-1.501,-0.15073,-0.065733,0.31906,-0.097445,0.70025,-0.13491,-0.27188,-0.91647,0.5383,0.19456,0.58491,-0.0044127,0.2332,0.34494,-0.12434,0.48824,-0.44175,-0.26629,-0.3247,0.196,-0.13698,-0.19644,0.84759
car,0.46443,0.3773,-0.21459,-0.50768,-0.24576,0.08134,0.10145,0.25155,-0.36152,-1.603,0.28219,0.36653,0.44611,0.2795,0.047722,0.30087,-0.16226,-0.026055,-0.26815,-0.46282,0.25012,0.60389,0.15111,-0.062823,-0.096755,-0.30548,-0.11376,0.53914,0.10966,-0.70618,-0.66316,0.43559,-0.048631,0.27755,-0.48685,0.11938,-0.54538,-0.29563,0.03447,0.53187,-0.001588,0.41692,-0.20742,-0.037833,0.43333,0.047521,0.83507,-0.065088,-0.29974,0.0047139,0.12339,-0.5066,0.2587,0.21264,0.19132,0.54204,-0.11385,-0.42384,-0.27808,-0.15105,-0.62104,0.27678,-0.054974,0.018479,-0.11744,0.33029,-0.35251,-0.21953,0.05514,0.16971,-0.36445,0.36383,0.20496,0.66512,-0.2254,-0.30347,-0.52782,-0.66115,0.11774,-0.14438,0.33886,0.2297,0.63072,0.76929,0.02536,-0.13685,0.084254,0.32036,-0.10431,0.7672,1.0674,0.42885,0.03032,-0.63375,0.70705,-0.17671,-0.1077,-0.31877,0.063781,-0.57507,-0.40656,0.55837,0.72376,0.2645,0.20313,-0.43949,0.53094,0.075492,-0.26951,-0.4277,-0.13859,0.28341,0.13153,-0.32371,0.22816,0.43016,-0.015529,0.13276,0.048239,-0.038536,0.013813,-0.24567,0.4658,-0.61963,-0.39568,-0.21261,0.11121,-0.19519,0.32773,-0.25276,0.87512,0.4986,0.25747,0.46459,-0.097237,0.42509,0.0080811,-0.79669,0.19793,-0.060157,0.06048,0.20092,0.46373,0.29617,-0.31812,0.12548,-0.17667,-0.29347,-0.59183,0.43081,1.0006,0.46858,0.11257,-0.56533,0.54729,-0.43424,0.22738,0.21527,0.087824,-0.073562,0.5316,-0.36782,-0.42531,-0.066561,0.34648,-0.13677,-0.26654,0.099056,-0.052121,-0.61409,-0.0036171,0.32633,0.3905,0.029416,-0.1119,-0.2118,-0.15688,-0.29308,0.23114,0.13873,0.66445,-0.26318,-0.25518,0.29499,0.70132,-0.3239,0.42109,0.27316,0.15021,0.058074,0.24201,-0.62194,-0.40832,0.038272,-0.35372,0.013934,-0.25013,0.42916,-0.039463,-0.29794,1.0178,-0.41685,0.15442,0.19598,0.44718,-0.25764,0.13438,-0.084223,-0.14142,-0.16001,-0.32541,-0.19588,0.13934,-0.44924,0.20827,-0.15747,0.035537,0.37097,-0.15336,0.20401,0.35981,-0.26311,-0.27436,-0.41229,0.45533,0.77527,0.29339,-0.27392,0.45037,0.060015,0.081354,-0.53969,0.31872,-0.082837,0.77918,0.094676,0.75256,0.33377,-0.55349,-0.15661,0.20791,-0.13498,0.4756,0.1218,-0.16496,-0.65669,0.52394,-0.43666,-0.0087235,0.52565,-0.12011,-0.21406,-0.15253,-0.22775,0.59701,-0.64509,-0.445,0.40937,0.11943,0.034467,-0.32471,-0.47915,-0.25264,0.26818,0.059601,-0.51842,0.33124,-0.29623,-0.28343,-0.41471,-0.04505,-0.0017776,-0.37654,-0.023911,0.55602,0.2044,-2.2391,0.14986,-0.098345,0.18714,-0.19265,-0.0061057,0.39897,-0.22392,-0.42168,1.0727,0.29344,-0.47384,0.30169,-0.15307,0.19966,-0.40979,-0.10325,-0.04361,0.17564,0.65709,-0.09986,0.49107,0.28215,0.34554
flag,0.29813,-0.56296,0.001225,-0.20097,-0.50686,-0.53876,-0.26476,0.50763,-0.0041301,-0.65341,0.051433,0.6202,-0.056366,-0.20872,0.19685,0.89439,0.0543,-0.02637,-0.48473,-0.25231,-0.3276,-0.28776,0.3997,0.39489,-0.17958,-0.60254,-0.52871,0.17445,-0.0042082,0.045087,0.66595,-0.56773,-0.23916,0.33021,-0.57161,0.11054,-0.43476,-0.51483,-0.29239,0.64537,-0.23837,-0.42408,-0.23814,-0.38175,0.37365,-0.28138,-0.21386,0.10569,0.14749,0.056298,-0.46204,-0.3532,0.3632,0.14376,-0.94244,0.1367,-0.34017,0.5387,0.20136,0.16253,0.20689,-0.34473,0.32739,-0.1449,-0.19974,-0.64976,0.042736,0.014728,0.30774,0.18922,-0.44941,-0.057683,-0.65181,-0.039096,-0.58265,0.4904,0.71261,0.02629,0.18038,0.010852,-0.48908,-0.35831,-0.0037822,0.014904,0.050788,-0.048334,-0.39393,0.25829,0.31012,0.29702,0.57057,-0.20618,0.23661,-0.13726,0.10952,-0.14445,0.07521,0.34987,-0.65572,-0.13724,0.59597,0.26813,0.41794,0.34826,0.011328,0.31313,-0.47555,0.10679,-0.027562,0.38339,-0.11815,0.72492,-0.23096,0.48619,-0.04111,-0.501,-0.0066241,0.67183,0.0073563,-0.65705,-0.079486,0.31857,0.85231,0.52797,-0.23327,-0.21419,-0.18778,0.082124,0.065445,0.17467,-0.13877,0.41966,0.26229,-0.41117,0.86183,0.5835,0.24255,-0.20515,0.33184,0.15827,-0.4275,-0.025936,-0.29578,-0.25522,-0.30729,-0.063255,-0.30483,-0.1709,-0.18674,0.40373,0.46019,0.34987,0.70936,-0.73722,0.6149,0.42186,-0.46305,-0.14674,-0.01647,0.33475,0.027762,-0.12074,-0.62917,0.30623,-0.34384,0.059629,-0.44887,0.69796,-0.18908,0.052319,-0.22962,-0.15857,0.14387,-0.42315,0.47985,-0.65641,-0.18368,0.050341,0.20217,0.065659,-0.24313,0.088957,0.5457,0.085016,0.30874,-0.45018,0.31682,0.35039,0.087727,-0.048793,0.62115,-0.88652,0.15498,0.1464,0.41511,0.2006,0.42404,0.04128,-0.48012,-0.11844,0.97797,0.554,-0.45703,-0.49601,0.66243,-0.66674,0.61021,0.13107,0.57263,0.31238,0.19706,-0.49847,-0.2111,0.11331,0.207,0.12957,0.51027,-0.093278,-0.05245,0.20549,0.88523,-0.093251,0.415,-0.25062,0.23495,-0.06288,0.72344,-0.096066,0.11488,-0.43214,0.28024,0.076739,-0.0053967,0.73707,-0.065166,-0.21689,-0.49644,-0.79335,0.27763,0.17845,0.01323,0.11018,-0.1176,-0.40352,0.30321,0.064622,0.09665,-0.021081,-0.26803,-0.32028,-0.21343,-0.17725,-0.4524,-0.78465,0.81784,0.098341,-0.30903,-0.53715,-0.29146,-0.77363,0.043394,-0.48983,0.50586,0.29349,0.1237,-0.094289,-0.44245,-0.44631,-0.42127,-0.41089,0.12031,-0.77408,0.46806,-0.2438,-0.52197,-0.085615,-1.693,-0.52537,0.55121,0.20762,0.30868,0.039004,-0.57197,-0.64517,-0.078953,-0.038079,0.076296,0.029476,0.35452,-0.059541,1.0274,0.099794,-0.51403,-0.12754,-0.77294,-0.013322,0.70218,0.089805,0.71505,-0.88063
juice,0.15195,0.7614,0.14915,-0.41437,-0.14567,-0.50219,-0.50231,-0.39448,0.74951,-0.49583,-0.48319,-0.70404,0.1379,0.10639,0.38696,-0.16552,-0.85562,0.55781,-0.56259,0.19749,-0.5174,0.39516,0.074141,-0.24162,-0.36144,-0.32268,-0.50554,0.45507,-0.78675,-0.66943,-0.73736,0.067947,-0.21014,-0.23949,-0.28275,0.71143,-0.26507,0.26731,-0.41108,0.010295,-0.089764,-0.38713,-0.30848,0.19976,-0.19039,-0.13865,-0.13478,0.36702,-0.041016,-0.18108,0.070949,0.48854,-0.42608,0.032359,-0.57976,0.044263,0.13668,-0.071542,0.65943,0.045761,0.51492,-0.14846,-0.042603,0.35773,0.016418,-0.033628,-0.85577,-0.21237,-0.42298,-0.16941,0.090045,0.57302,-0.37569,-0.24533,-0.42755,-0.26495,0.72303,-0.215,-0.16872,0.054744,0.075608,0.079584,0.0024433,0.18945,0.10478,-0.49773,-0.2201,-0.14015,0.042142,-0.93975,-0.091534,-0.14419,0.19514,-0.14776,-0.17715,0.15047,-0.083799,-0.17462,0.43505,0.3504,-0.14915,-0.17163,0.24508,-0.34,0.37427,-0.38205,-0.46848,-0.23736,-0.77992,-0.050716,0.062502,0.2087,0.039286,0.23765,-0.24857,-0.10315,-0.65845,0.25777,0.10656,-0.1786,-0.78351,-0.27769,0.52359,-0.32138,-0.602,-0.22727,0.33146,0.17523,-0.12907,0.56209,-0.1699,0.59528,-0.19417,0.28698,-0.45843,0.10619,-0.21125,-0.28968,-0.52057,-0.0025831,0.69398,0.15494,-0.22045,0.28548,-0.29975,0.51327,-0.49321,0.0018681,0.67654,-0.15935,-0.88205,0.37715,0.57271,0.0069871,0.049842,-0.54804,-0.023555,-0.52219,-0.16532,-0.063412,0.16734,0.0096065,0.014392,0.15839,0.23046,-0.72788,-0.027317,0.28153,-0.15861,0.033581,0.29721,0.35107,-0.8857,0.32086,0.28042,-0.41709,0.28365,-0.61554,0.70116,-0.054294,-0.51612,0.44788,0.0012041,-0.35431,-0.018166,-0.4915,1.6677,-0.042912,0.69103,-0.29296,0.0095156,0.88939,-0.13357,0.35169,-0.097009,-0.19987,-0.5419,0.10961,-0.52313,-0.024565,0.26488,-0.091445,0.53763,0.67535,-0.46585,0.72233,0.49054,0.3145,0.064269,-0.097612,-0.30883,-0.34068,-0.88608,0.47962,0.10815,0.016904,0.77165,-0.40453,-0.084639,0.23496,0.48214,0.13527,-0.93449,-0.060068,-0.59255,0.10441,0.051254,0.21052,0.18132,-0.33456,-0.48536,0.21651,0.097286,-0.12333,0.47291,0.35308,0.43175,-0.30053,-1.0335,-0.62379,-0.46986,-0.28346,-0.4947,-0.17952,-0.88532,-0.14009,0.76572,0.24434,-0.49121,-0.75048,0.72829,0.29977,0.19664,0.24065,-0.31668,-0.33773,-0.66882,-0.32562,0.93121,0.33841,0.14037,-0.034865,-0.058347,-0.41791,0.077489,-0.78608,-0.32332,-0.46727,0.051271,0.30833,-0.29297,-0.13348,-0.69905,0.035865,-0.096587,0.7607,-0.69848,-0.27491,-0.86228,-0.22761,-0.43761,-0.068494,0.13873,0.029343,-0.057953,0.26897,-0.07574,-0.61493,-0.0030598,0.50722,-0.34392,0.17444,0.77563,-0.34166,0.19907,-0.46331,-0.47143,-0.4955,-0.21142,0.090449
tennis,0.46643,-0.052652,0.55868,0.099123,0.59524,0.10039,-0.61731,-0.1077,-0.19198,-0.49691,0.89786,0.40523,0.26502,0.083687,-0.50005,0.033536,-0.30877,0.074215,0.21766,0.2347,-0.41228,0.015552,-0.83384,-0.089072,-0.29526,-0.24515,-0.20125,0.39056,0.30558,0.56704,0.029383,-0.063299,-0.063362,0.56875,-1.0411,0.47509,0.55876,0.061061,-0.21018,0.23456,0.59335,-0.70916,0.0068687,-0.30842,0.71783,0.12229,0.54189,0.25627,0.11902,0.39695,0.13936,-0.20349,0.1056,-0.1965,-0.54658,0.70832,-0.03392,-0.20079,1.0105,-0.14074,0.21146,-0.43086,-0.28682,-0.20715,-0.25445,-0.56769,-0.85295,0.21942,-1.2138,-0.57391,0.20645,0.0015305,-0.1042,-0.22677,-0.36302,-0.43596,-0.1162,-0.39815,0.041097,0.042808,0.60225,-0.34278,-0.0028876,-0.28518,0.18521,-0.63023,0.41457,-0.1507,0.21092,0.095856,0.30064,-0.25961,0.17303,-0.07711,0.4963,0.21352,-0.022576,0.42543,0.18696,-0.93143,0.31236,0.064481,-0.31425,-0.33806,0.21768,0.8219,0.33292,-1.318,-0.35751,-0.39645,0.16431,-0.35177,0.48219,-0.28765,-0.26468,0.036556,-0.021736,0.07486,-0.16943,0.14493,0.19337,0.18849,0.75199,0.053371,-0.15583,0.84229,0.20502,-0.029654,-0.46709,0.70712,-0.47834,0.44716,-0.4831,-0.063387,-0.34106,-0.55678,0.63087,0.44591,-0.45964,0.24119,0.10006,-0.04301,0.67575,0.79841,0.013807,-0.32295,-0.23094,0.69057,0.53551,0.76144,0.032047,-0.3599,-0.18883,0.013904,0.44217,-0.40577,-0.33278,0.28467,0.54136,0.75132,0.046038,0.37727,-0.46388,-0.10697,0.21293,-0.4625,0.10621,0.12767,0.37307,-0.25802,-0.24729,0.15318,-0.86029,0.039244,-0.18437,0.26833,0.58433,-0.27611,0.052482,0.26325,0.26855,0.0080088,0.49863,0.021035,0.079008,0.29719,-0.23914,0.43705,-0.21801,-0.54107,0.29658,0.24295,0.029483,-0.16879,0.21613,-0.27117,0.30956,-0.0096969,0.38167,-0.16219,2.0876,0.074613,-0.36298,-0.40489,-0.51144,0.040203,-0.49035,-0.13107,-0.77002,-0.34854,-0.50715,0.61953,-0.6292,-0.20864,0.21113,-0.40382,-0.37495,-0.24291,-0.03599,-0.76792,0.56,-0.27854,0.33802,-0.51963,-0.19255,0.16649,-0.38058,-0.084939,-0.4755,-0.11086,0.38331,-0.088015,0.95289,-0.24982,0.17407,0.33876,0.014026,1.1244,0.11396,0.4774,-0.025831,0.12903,-0.064178,0.070779,0.51935,0.47335,-0.88061,-0.31008,-0.51542,-0.38283,0.86198,-0.40634,-0.56371,-0.63577,0.2592,-0.79179,0.44004,-0.070835,0.6223,-0.23262,-0.13229,-0.47742,-0.022726,-0.42175,0.73539,0.12355,-0.17005,0.93101,-0.040864,-0.21089,0.14365,0.09904,0.91338,-0.59493,1.0689,-0.83542,-1.2984,0.31283,0.17368,0.45511,0.16757,-0.22978,-0.41076,0.26586,-0.46392,-0.74194,-0.18492,0.19012,-0.62356,-0.3656,0.069745,0.55205,-0.3608,0.67203,0.37443,-0.43647,0.76899,-0.038456,0.9615,-0.12443
beach,-0.43201,-0.29334,-0.48466,0.060447,-0.041038,-0.41812,0.42745,-0.0069091,0.58495,0.015307,0.1511,-0.2538,0.22429,0.089451,0.21661,-0.26395,0.13711,-0.1092,-0.051954,0.45312,-0.10173,0.1113,-0.63251,-0.088302,-0.6088,0.28492,-0.081444,0.73964,0.024666,0.36475,0.47733,0.47596,-0.53971,0.57024,-0.75121,0.15308,-0.19145,0.037155,0.26753,-0.16556,-0.097817,0.012022,-0.29558,0.25823,0.30245,-0.076946,1.6519,-0.073691,0.68937,0.51128,-0.40291,-0.26329,0.29608,0.0066492,0.1862,0.717,-0.30484,0.05481,0.45084,-0.4,0.27628,0.10086,0.52218,0.52695,0.11256,-0.60439,-0.13901,0.4125,-0.23344,-0.83617,-0.46526,0.033486,0.056721,0.60282,-0.81467,0.038967,0.29492,0.29793,0.10671,-0.22263,-0.21279,0.31633,-0.28711,0.39681,0.063826,0.010235,0.15848,0.6917,0.3747,-0.20794,-0.030262,-0.16917,-0.15689,-0.61851,0.64558,0.37355,0.10415,-0.4879,0.077423,-0.21314,-0.17488,0.23322,0.34012,0.092493,-0.019792,0.17647,0.083871,-0.56457,0.043952,-0.68072,-0.19069,-0.29634,0.32445,-0.26917,0.31219,-0.046541,0.13776,0.2747,-1.0019,0.21193,0.2686,-0.0336,-0.079722,-0.18906,-0.209,0.39019,0.0027023,-0.64877,0.060228,-0.20269,0.24324,0.15215,-0.13382,0.042618,-0.1892,-0.43115,0.049039,-0.33881,0.59611,-0.049891,-0.0016232,-0.22681,0.099417,0.44706,-0.27729,-0.0037426,0.39067,0.25892,-0.29912,0.35928,0.94238,0.20146,0.16745,-0.36327,0.38239,-0.63066,-0.16407,-0.050463,0.17001,0.82396,0.41703,-0.51016,-0.011384,0.072768,-0.23004,-0.093932,0.62023,0.48901,-0.027124,0.51553,-0.36205,0.055617,-0.44577,0.39511,-0.2547,-0.37211,0.17471,0.32461,-0.085794,-0.1661,0.25876,0.33433,0.085997,0.48547,0.22964,-0.050578,0.06786,-0.67384,0.20172,0.39476,0.046099,0.83884,-0.51513,-0.41535,0.034212,0.46048,0.89849,-0.36805,-0.49526,-0.27369,1.2205,-0.0328,-0.49009,-0.16898,-0.003581,-0.20218,1.0797,0.040232,0.31272,-0.013697,-0.41781,0.51634,-0.35983,0.15448,0.072467,0.36828,-0.03009,-0.4813,-0.11007,-0.21896,1.0988,-0.56261,0.3695,-0.15897,-0.10291,-0.2115,-0.16058,-0.95667,-0.1888,-0.30262,0.78937,0.096724,0.20473,-0.14744,0.48482,0.014087,0.036173,-0.17807,0.000086088,-0.15663,-0.35,-0.020353,0.30465,0.054851,-0.7704,0.12134,-0.29765,-0.25939,-0.86342,-0.077309,0.22423,0.10517,0.098549,0.040196,-0.015992,-0.67612,0.4442,-0.11573,0.13742,-0.36337,-0.077036,0.11899,-0.62977,-1.072,-0.59443,-0.52442,0.26011,-0.14947,0.23685,0.017372,-0.23494,-0.63304,0.002255,0.15509,0.10461,-0.56292,-1.7433,0.75851,-0.60962,0.31026,-0.035553,0.0047786,-0.82839,-0.09606,-0.47833,-0.17492,0.20597,-0.4113,-0.14501,-0.18467,-0.60935,0.11558,-0.46348,0.16988,-0.31386,-0.093683,0.085665,0.30703,0.32745,-0.6273
dime,-0.1367,-0.00091116,-0.79509,0.60331,0.69336,0.17639,-0.023058,-0.026196,-0.25019,-0.21431,-0.41305,-0.23593,0.099531,-0.11145,0.33436,0.013695,0.12178,-0.4574,0.21145,-0.36212,0.7919,0.015618,0.43076,0.46455,0.21348,-0.088242,-0.046541,0.34775,0.17157,-0.67731,-0.31911,-0.17328,0.21149,-0.30239,-0.38721,-0.51423,-0.68367,0.69886,-0.14955,0.099597,-0.40804,-0.55872,-0.48829,0.3945,-0.34452,0.37234,0.81926,-0.298,-0.49253,0.67701,-0.037812,-0.24186,0.58009,0.084458,-0.46356,-0.26737,-0.12387,0.26289,0.34843,-0.55441,0.20858,-0.32224,0.083348,-0.22721,0.71799,0.39035,0.30671,-0.13402,0.232,-0.20336,-0.14741,-0.40764,0.36378,0.63958,-0.03211,0.049871,-0.25723,-0.18835,-0.024039,-0.60128,-0.32601,0.38176,0.53278,0.53096,-0.31394,-0.079209,-0.50274,-0.03842,-0.38602,-0.072824,0.46308,0.44312,-0.43861,-0.050774,-0.077538,-0.19912,-0.47427,-0.03212,0.1149,0.19837,0.38783,-0.26594,-0.67273,-0.41093,-0.23952,-0.13865,-0.097256,0.10508,0.086558,-0.058865,-0.6298,0.22544,-0.31559,0.068891,0.20305,0.27362,0.44708,-0.049723,0.30372,0.30673,0.63772,0.26666,0.21573,0.22408,-0.43159,-0.1795,0.16593,0.19267,0.16044,0.76564,0.22314,0.0092957,-0.18265,0.18335,0.17862,0.027152,-0.7731,0.31862,-0.44892,-0.058782,-0.079441,-0.11881,-0.25622,0.63417,-0.041752,0.46785,-0.67764,0.43104,0.40607,-0.30037,-0.23247,0.34245,-0.17709,-0.35311,-0.008192,-0.38002,-0.70187,-0.70248,-0.37946,0.021008,-0.036322,-0.15351,0.29332,0.14025,0.35769,-0.15594,-0.28709,0.3655,0.70227,-0.73007,0.038887,0.27053,-0.469,-0.23744,0.35119,-0.46131,-0.65417,0.14407,0.57997,-0.50181,0.3925,-0.32308,-0.10682,0.32331,0.14965,0.19874,0.61545,0.17034,0.54482,-0.11295,0.39623,-0.50143,1.01,0.055373,-0.80524,-0.019267,-0.15526,0.0066134,0.29284,0.72977,0.043535,0.073797,0.0068046,-0.26321,0.048632,-0.20088,0.22346,0.29546,-0.33562,-0.9253,-0.099431,-0.35969,0.073713,0.47459,-0.056129,0.49747,-0.25953,0.18681,-0.11174,-0.27835,-0.50529,0.5976,-0.28468,0.70074,0.31338,-0.076802,0.10471,0.05176,0.21845,-0.24242,-0.3036,-0.45059,-0.32308,0.26584,0.0022157,-0.43493,0.25467,-0.63661,0.2313,-0.35614,0.30311,-0.53457,0.33687,-0.59322,-0.72652,-0.55801,-0.50435,-0.23335,-0.16837,0.11785,-0.12956,0.26195,0.063699,0.12189,0.12513,0.45031,0.091191,0.25034,0.099948,-0.29767,0.2573,0.28012,0.082764,-0.11654,0.47496,0.27339,0.33582,-0.15078,0.34934,0.39178,0.73691,-0.19709,0.0074025,0.37822,-0.36007,0.031698,-0.28283,0.51534,-0.55114,-0.075677,-0.13062,0.016495,-0.60313,-0.51796,-0.10295,0.053878,0.16911,-0.49778,0.40884,-0.26255,-0.024801,0.12067,0.22851,0.017966,0.0068154,-0.55017,0.29262,-0.12663,-0.42997,-0.27558
sword,0.07667,-0.11689,0.39563,-0.56659,0.16204,0.78898,-0.0068302,0.71349,-0.073955,-0.50661,0.32054,-0.013856,-0.40991,-0.00096218,-0.35431,0.34898,-0.13729,0.65995,0.16316,-0.10568,-0.12368,-0.12954,0.21727,0.21384,0.8621,-0.15427,-0.15062,-0.43442,0.12565,0.5559,0.74951,0.11501,0.024744,-0.12201,-0.12141,-0.36117,0.28817,0.18471,-0.085066,0.37549,0.27286,-0.018006,-0.26167,-0.31659,0.12118,-0.059784,0.094128,-0.45078,0.39743,0.11253,-0.83942,-0.1125,0.363,0.12559,-0.74591,-0.52537,-0.42766,0.7964,0.51902,0.23076,0.38707,0.62066,0.49702,0.76436,-0.12799,-0.62982,-0.76592,0.027567,0.62224,0.18964,0.065434,0.26098,-0.048508,0.049704,0.11343,0.49936,0.034542,-0.32182,-0.44179,-0.19519,0.025734,0.68804,0.48922,0.14917,-0.1999,-0.02553,-0.079559,0.20097,-0.26832,0.30492,0.2198,-0.014714,0.68517,-0.1679,-0.0030476,-0.42306,0.12191,0.060015,0.76194,0.23339,-0.031686,0.22363,-0.70019,0.36426,0.71296,-0.12637,0.11482,-0.056185,-0.2288,-0.40038,0.40215,0.63748,-0.15087,-0.31658,0.3954,-0.00019159,-0.42506,0.065338,0.062284,-0.67711,-0.18758,-0.16849,-0.86607,-0.11325,-0.17996,0.20478,-0.42785,-0.28267,-0.19449,-0.39914,0.19708,0.23338,0.67501,0.17925,-0.29124,-0.51086,0.22684,-0.1799,0.56656,0.20797,0.37541,0.12953,-0.3878,-0.2993,0.28743,0.18756,-0.17229,-0.19222,-0.28156,-0.23724,0.16284,0.48723,-0.36257,-0.43031,0.11941,-0.32921,0.18609,-0.44783,-0.041907,-0.19811,0.63627,0.2879,0.38488,0.63437,-0.19123,-0.0025696,0.1672,0.033499,-0.62507,0.019896,-0.31888,-0.017837,-0.013794,0.25266,0.028947,-0.60836,-0.028375,0.10074,0.3617,-0.35911,0.059065,0.24687,0.1188,0.30466,0.57995,-0.12441,-0.081248,0.46256,-0.16931,-0.071045,-0.23402,-0.026427,0.69535,0.38246,0.091557,0.2663,-0.60121,-0.75088,0.12071,-0.30531,1.0339,0.49774,-0.0060513,0.36402,0.2592,0.081381,0.059548,0.064893,-0.46732,-0.16136,-0.2153,0.22359,0.10946,-0.065335,0.50819,-0.1521,0.11836,-0.17627,-0.81356,0.11642,-0.73996,0.24308,0.090239,0.075419,-0.86685,-0.83705,-0.43312,-0.1133,0.11256,-0.47041,0.13162,-0.2128,-0.43213,-0.11441,-0.30759,0.4067,-0.81032,-0.3734,0.15765,0.43137,0.34159,-0.32444,-0.30654,-0.19267,0.1666,0.47517,-0.78353,0.36941,-0.32143,-0.24835,-0.75683,0.35169,0.093869,-0.46998,0.45424,-0.1436,-0.16661,-0.054467,0.093127,-0.15298,0.1617,-0.093588,0.27039,0.028688,-0.52589,0.032098,-0.71749,0.0042214,-0.7178,0.3968,0.0089933,-0.62524,0.43971,0.61084,-0.71742,-0.15949,-1.1118,-0.56526,-0.61713,-0.12928,0.37279,0.32166,-0.37329,-0.15442,0.27111,-0.30615,-0.66122,0.0068814,-0.34595,0.010025,0.084172,0.099894,-0.27105,0.077689,0.13754,0.33754,0.46939,0.47872,-0.12191,-0.11785
sky,-0.026314,-0.21511,0.72204,0.19623,-0.53796,0.367,-0.57031,0.4624,-0.23777,-0.8635,0.16289,-0.29362,0.33433,0.18889,0.24338,0.74237,0.0021668,-0.11714,0.23876,0.076278,0.10574,0.45856,0.04949,0.62107,0.51195,-0.5014,0.18643,0.025261,-0.1486,-0.30723,0.36791,-0.55488,-0.62582,0.12107,-0.75114,0.4178,-0.20558,-0.3924,-0.12825,0.65701,0.025772,0.070308,-0.091907,0.778,0.0050519,-0.33055,0.21613,0.48732,0.27083,-0.93149,-0.078518,-0.000939,0.17127,-0.73307,-0.51726,0.47205,-0.020463,0.0084671,0.38482,-0.16966,-0.52026,0.41863,0.51182,0.095051,0.14345,-0.03013,0.15567,0.20674,0.073332,-0.32583,0.034537,0.27261,-0.44249,-0.091403,0.063564,0.50679,-0.099001,-0.17886,0.18558,0.097661,-0.022247,0.31914,0.10361,0.19647,-0.16194,0.23665,0.1465,0.26908,0.18465,-0.055929,0.2598,-0.013792,-0.021437,0.29258,-0.26759,0.41327,-0.04096,0.061194,0.10187,-0.1799,0.23463,0.22597,-0.44062,0.65818,0.050484,0.29436,0.08012,0.46755,-0.042563,-0.09206,-0.096545,-0.29832,0.96432,-0.14222,0.20348,-0.25252,-0.27812,0.23177,0.00076319,-0.73546,0.035728,-0.13555,-0.11455,0.83347,0.12066,-0.59348,-0.35677,0.77924,-0.33473,-0.34394,-0.33311,0.36067,0.19913,0.67695,0.30866,-0.14143,-0.15515,0.14007,-0.17818,-0.24532,-0.14801,0.36245,-0.10686,-0.24319,-0.45901,-0.031366,0.56484,0.54089,-0.24468,-0.10727,0.36726,0.39465,-0.0039489,-0.21516,0.45364,-0.037613,0.59116,-0.1303,-0.22858,-0.3565,-0.047718,-0.73843,0.47574,0.11437,0.59135,-0.013233,0.059353,0.33767,-0.43533,0.33016,-0.39778,0.29732,0.3846,0.3015,-0.2359,0.15413,-0.21657,0.20456,0.085628,0.12801,0.11284,0.20205,0.52958,-0.052088,-0.099558,-0.46207,0.77199,-0.13092,-0.49755,-0.41972,0.080986,0.10332,-0.50332,-0.33205,-0.10911,-0.36438,-0.42507,0.12388,-0.22227,0.13003,1.5613,0.17709,-0.44912,-0.095824,-0.29489,0.21034,-0.07987,0.11031,0.20056,-0.25319,-0.038898,0.27335,-0.19516,-0.38569,-0.10457,0.0084786,0.66324,0.030436,0.082808,-0.4028,0.86386,0.14507,0.21767,-0.51419,-0.51909,0.15426,-0.25403,-0.35879,0.40645,-0.33321,0.34036,0.21903,0.11383,-0.46475,-0.16853,-0.14775,-0.39883,0.080502,-0.8762,-0.49953,-0.12011,-0.12743,-0.47207,0.048396,0.35976,0.18981,-0.37053,-0.38287,-0.10439,0.13213,-0.23822,0.50068,0.10941,-0.020653,-0.25777,-0.075581,-0.67364,-0.07993,-0.024803,0.47364,0.35432,0.018657,0.23295,0.0031183,-0.42696,-0.4851,0.038922,0.070219,-0.24286,0.34727,0.18784,0.25901,0.037498,-0.22065,-0.021453,-0.27418,-1.2704,0.024389,-0.17258,-0.13755,-0.22618,0.23425,-0.6434,-0.27926,0.22003,-0.57434,-0.34821,-0.17832,-0.091259,-0.046079,0.52805,0.43915,-0.82005,0.17109,-0.14971,0.037674,0.20102,-0.036512,-0.10303,-0.081372
tree,-0.56435,-0.1297,0.14408,-0.44019,-0.33668,0.49639,-0.053135,0.22653,0.10723,-0.78894,-0.39606,0.79084,-0.084203,-0.051866,-0.16708,0.18568,-0.4081,-0.052432,-0.42302,0.23911,0.015259,0.19099,0.26818,0.063034,-0.062153,-0.10055,-0.49126,-0.41792,-0.62518,0.89887,0.080241,0.3506,-0.61316,-0.028336,-0.28215,0.12444,0.84797,-0.35754,-0.37787,-0.36796,-0.36041,0.12594,-0.063622,-0.26109,-0.17909,-0.3326,0.73833,0.059869,0.25457,0.13121,-0.19318,-0.58859,-0.23607,-0.29464,-0.49118,-0.1171,-0.37903,-0.17793,0.48562,0.074358,-0.076378,-0.12283,0.39954,0.81144,-0.22988,-0.23313,-0.062379,0.92813,-0.039347,0.30033,-0.97013,0.41243,-0.96927,0.55325,-0.87159,0.2102,-0.038392,-0.30676,0.22387,-0.077817,-0.40668,0.27274,0.37372,-0.11735,-0.13707,0.28688,0.0080958,0.34569,0.13293,-0.023827,0.16759,-0.28946,0.1421,-0.49661,0.28632,-0.31844,0.42945,-0.36424,-0.26485,-0.6267,0.23427,1.0377,0.059257,0.25428,0.18698,-0.075089,0.4503,-0.36401,-0.22171,0.18016,-0.041657,-0.23693,0.22438,0.30514,0.50908,0.071724,-0.10343,0.52046,-0.28975,-0.53869,-0.40662,-0.11786,0.6292,0.13709,-0.42185,-0.014722,0.061052,0.17121,0.14816,-0.24802,0.13751,0.68607,0.58462,0.592,0.12885,-0.24826,-0.14803,-0.13401,-0.3944,-0.27982,0.95469,0.61556,-0.20237,-0.3582,0.10752,0.52616,0.36502,-0.073716,-0.27895,-0.08062,0.012601,-0.16497,-0.12164,0.19827,-0.19992,-0.29916,0.50885,-0.19125,-0.44163,0.90072,-0.21377,0.15912,0.58009,0.22372,0.070003,-0.014042,-0.2402,0.056,-0.311,-0.38313,-0.286,-0.56864,0.34789,0.39557,0.23173,0.15285,0.47384,0.62374,0.1365,-0.80344,-0.26661,-0.10039,0.60552,-0.71305,-0.052126,-0.2975,0.31169,0.16324,0.4107,0.27167,0.15222,0.092769,0.16529,-0.25763,-0.4567,-0.0081324,0.47778,0.15783,-0.021043,0.34246,1.0261,0.20904,-0.16727,-0.049204,0.047176,0.18121,-0.41268,0.34682,0.17674,0.083125,-0.25703,-0.45113,0.12679,-0.65666,0.35139,0.11653,0.172,0.2649,0.56456,0.0018133,0.47596,-0.088045,-0.70881,-0.19062,-0.36204,0.44005,-0.028424,0.39779,0.25677,0.52158,-0.15254,0.018074,-0.31516,0.12267,0.50567,-0.2184,-0.76245,-0.53143,-0.15163,-0.79907,0.08385,-0.34651,-0.53213,-0.11589,-1.1181,0.35542,0.17688,0.27888,0.091947,-0.11513,0.31364,0.42158,-0.15847,-1.0305,1.232,-0.090308,-0.035325,0.093564,0.44954,0.26633,0.19228,-0.00035787,0.14203,-0.043771,-0.1436,0.32044,0.33763,-0.32284,0.46184,-0.11823,-0.50937,-0.17481,0.044702,-0.45475,-0.47535,-0.23447,-1.6027,-0.091564,-0.62833,-0.22318,-0.52346,-0.59005,-0.22773,-0.64549,-0.79457,0.61661,0.80129,-0.55505,0.17815,-0.13936,0.55653,0.075952,0.21905,0.089731,0.26486,0.1119,-0.1865,-0.14347,0.11146,-0.027562
mountain,-0.43259,0.40692,-0.12746,-0.25947,0.062821,-0.12003,0.33239,0.71779,0.041926,-0.57005,0.30274,-0.3728,0.19386,0.61406,0.19437,0.16518,0.24126,-0.15049,0.82557,0.25541,-0.12054,0.037174,0.10807,0.23701,-0.51828,-0.75517,0.17465,-0.36961,0.074334,0.74599,0.74012,-0.044554,-0.10747,-0.075329,-0.15497,0.24913,-0.20347,-0.33578,-0.082066,-0.51769,-0.45993,0.152,0.23672,0.087113,0.37408,-0.081376,0.33889,0.57601,0.80292,-0.51413,-0.19699,0.012181,-0.039179,-0.0068088,-0.61727,0.5907,-0.23454,-0.10775,0.23333,0.53284,-0.041548,0.12634,0.82256,0.31364,-0.49618,-0.017861,-0.7069,0.30807,-0.047611,-0.11022,-0.31512,0.38277,-0.24027,0.13813,-0.83247,-0.060317,0.12474,-0.59645,0.37501,-0.62861,-0.28228,-0.20457,0.16801,-0.38008,0.2993,-0.030578,0.15338,0.55719,-0.1969,-0.14642,0.28199,-0.38608,0.3747,0.72947,-0.37308,0.41907,0.29316,0.50283,-0.033765,0.28795,-0.33911,0.57224,0.20948,0.23078,-0.77964,-0.43469,0.34762,0.33033,0.38447,0.29156,-0.14989,-0.48682,0.24629,-0.32094,0.47719,-0.00039452,-0.062519,-0.01442,0.16561,0.53211,0.082948,-0.18364,-0.25352,-0.15882,-0.80527,0.30331,-0.066446,0.33401,-0.60635,-0.69345,-0.43336,0.4756,0.34525,0.30473,0.5646,-0.13935,-0.69052,0.54186,0.1278,-0.64817,-0.0027162,-0.18791,0.074633,-0.23116,-0.67061,-0.1558,0.73346,-0.11482,-0.4403,-0.043041,0.38664,0.19441,-0.29673,-0.39917,1.1769,0.088983,0.13739,-0.35602,-0.14495,0.35756,0.21879,-1.429,0.49489,0.067446,-0.37944,0.25655,0.4044,-0.28097,0.011707,-0.71544,-0.016342,0.20841,0.065211,0.12264,-0.24497,0.020748,0.48824,-0.049944,0.040389,0.34377,0.44929,0.083684,0.31901,-0.14554,0.20149,-0.19975,-0.14062,-0.18619,-0.45348,0.076408,0.47517,0.70817,0.20107,-0.19048,-0.19434,-0.47592,-0.52913,-0.58482,0.084202,0.89129,1.5954,-0.14023,-0.053244,-0.23657,-0.1751,0.066841,-0.91382,0.21515,-0.10886,0.48304,-0.32128,-0.024137,-0.30573,-0.44216,-0.15263,-0.25983,-0.07223,-0.24122,0.37876,0.018685,0.078873,0.08126,0.12901,-0.26367,0.7149,-0.057089,-0.12075,0.0091381,-0.51631,-0.38202,-0.31806,-0.34346,-0.42496,-0.67563,0.50288,-0.20734,-0.22542,-0.29328,0.318,0.11823,-0.44159,0.35287,0.36925,-0.79697,-0.74806,0.017674,-0.34681,0.54487,-0.15933,0.030926,-0.55588,0.38351,0.14556,-0.62707,0.85578,0.034181,0.025927,-0.27148,-0.30173,0.24194,0.23388,-0.36868,0.2355,-0.39139,0.095834,-0.66266,0.39578,0.33396,0.76741,-0.096091,-0.45085,0.040074,-0.22541,0.26696,0.22507,0.013185,-1.3612,0.093425,-0.25561,0.026987,-0.19837,-0.088123,0.079666,-0.35041,-0.57542,-0.015958,0.081184,0.1171,0.20049,-0.3944,0.033863,-0.26267,-0.55192,-0.10005,-0.71162,0.72207,0.44997,0.68473,0.076177,-0.12936
alcohol,0.27689,0.49418,0.21478,-0.25025,-0.39316,0.13976,0.28666,0.079402,0.93737,-1.347,0.12899,-0.52641,-0.73486,-0.013597,0.056198,-0.13236,-0.5202,0.009969,-0.47349,-0.27632,-0.79876,0.27712,-0.088547,0.013551,-0.84442,0.050662,-0.36761,-0.15575,-1.0528,-0.75242,-0.36513,0.63839,0.15941,-0.20758,-0.49731,0.079202,-0.33899,0.15509,-0.27182,-0.35769,-0.58015,-0.23144,0.20557,-0.8699,0.23893,-0.86645,-0.43712,-0.63473,-0.18286,0.31963,0.25749,0.09626,-0.36817,-0.28535,-0.27621,-0.077228,-0.13597,-0.26424,-0.22466,0.075631,-0.093869,-0.24927,0.36121,0.076412,-0.56066,-0.86723,-0.72089,0.2048,-0.45178,0.60908,-0.08301,-0.63233,-0.54645,0.040634,0.075698,-0.43679,0.46948,-0.32492,-0.072457,0.40493,0.26944,-0.14726,0.24614,0.12282,0.20655,-0.40529,-0.36712,0.16889,0.035998,0.6506,-0.39488,0.055545,-0.025841,0.71015,0.15672,0.1835,0.35039,-0.050807,0.50965,-0.29387,-0.017744,0.53974,0.13211,0.010061,-0.16679,0.24878,0.022225,0.67185,-0.56396,0.02358,-0.040214,-0.51256,0.2759,-0.27529,0.62447,0.26135,0.35787,0.27651,-0.56375,-0.10152,-0.68822,0.55371,-0.073352,-0.054932,-0.21665,0.19108,0.48468,-1.0925,0.53134,0.39942,1.1367,0.23041,0.12958,-0.044733,0.30278,0.55256,-0.12751,0.13969,-0.24817,-0.21815,0.23326,-0.20453,0.33018,0.30053,0.24752,-0.45068,-0.22089,-0.14083,0.96636,0.65887,0.1809,0.15898,0.18656,0.14619,-0.52513,0.38366,0.17465,0.18215,0.53173,-0.37854,0.76597,-0.26319,-0.25531,-0.099967,-0.097057,-0.20169,0.018609,-0.25019,-0.13753,0.22445,0.23153,0.014432,-0.007108,0.018868,-0.11052,-0.53014,0.032903,-0.69289,-0.028364,0.24111,-0.25732,0.4025,-0.8604,0.038872,0.31707,-0.27831,0.91416,-0.55797,0.15621,-0.59763,-0.41006,0.012705,-0.24975,0.21025,-0.34673,-0.33117,-0.28968,0.54928,0.13367,0.038258,-0.30618,0.39611,0.25087,0.53555,-0.35979,0.23326,0.013168,0.48559,-0.5556,0.23541,0.037205,-0.14301,-0.50857,0.4313,-0.22425,0.18144,0.52039,0.54499,0.45413,0.14025,-0.39611,0.44244,-0.27328,-0.65307,-0.35808,0.84183,-0.060044,-0.15512,0.48361,0.19302,0.2332,-0.41947,0.066694,-0.35384,0.12551,0.054408,0.68118,0.69268,-0.17772,0.38168,-0.59508,-0.095549,-0.039504,-0.71946,-0.042256,0.30514,0.59847,-0.22493,-0.51961,-0.30995,-0.047877,-0.38163,-0.10224,0.014221,-0.52412,-0.20749,-0.40405,-0.38293,0.017582,0.033886,-0.16083,-0.10339,-0.31348,-0.7773,0.055909,-0.33009,0.637,-0.25782,-0.39516,0.35841,0.37704,0.033818,-0.147,-0.063303,-0.23073,-0.25968,-2.1935,-0.047711,-0.14492,-0.50834,0.16102,-0.1209,0.41921,0.017065,-0.21227,0.67183,-0.48159,-0.56417,0.188,0.59253,-0.84427,0.39244,-0.52376,0.058584,0.49652,-0.68849,0.054149,-0.048743,-0.36214,-0.20415
kitchen,0.1883,0.24958,0.043344,-0.72107,0.29341,0.32433,-0.27131,-0.39779,0.13071,-0.77898,-0.072166,0.013103,0.54325,0.28507,0.055205,-0.033791,-0.012879,0.019831,0.1739,0.27636,0.079885,0.41577,-0.061058,-0.042344,0.141,-0.27894,-0.042941,0.1564,0.55578,-0.11274,-0.03282,0.6267,-0.41617,0.24959,-0.65095,0.85969,-0.25023,-0.15289,-0.2181,-0.25116,0.24252,-0.12786,-0.052368,-0.10831,0.13926,0.18058,0.35781,-0.1701,0.10246,-0.17611,0.2052,-0.027307,0.59104,-0.13442,-0.46667,-0.27374,0.008256,-0.050164,-0.016307,0.02368,0.046658,-0.40543,0.24638,0.64126,-0.53631,-0.82519,0.11849,0.25954,-0.7239,-0.56148,0.075758,-0.59977,-0.2243,0.17745,-0.58811,0.27497,-0.3549,0.24112,-0.33877,-0.73274,-0.056707,0.54672,0.16752,-0.20334,0.47152,-0.26157,-0.18311,0.321,-0.15699,-0.53857,0.41248,-0.19425,0.40087,-0.19089,-0.30071,-0.51831,0.048405,-0.3117,0.29871,-0.60712,-0.28698,0.094147,-0.019967,-0.44453,0.14036,-0.74576,0.51608,0.18179,-0.17442,0.6548,-0.21054,0.071179,0.024987,-0.67367,-0.57773,-0.31142,-0.55635,-0.15489,-0.7103,-0.28067,-0.1022,0.44198,-0.2356,0.11968,-0.10657,0.063841,-0.072053,-0.24407,-0.016788,0.23189,0.60175,0.025885,0.52771,-0.058661,0.40078,-0.27812,0.17431,0.50494,-0.30543,0.12939,0.28321,0.10249,0.40663,-0.21074,-0.12332,0.9233,0.3731,0.24754,0.02584,-0.40382,-0.31343,0.5834,0.32653,0.0058325,-0.16295,0.24397,-0.65223,0.35878,-0.12147,-0.022434,0.65176,0.56269,0.37908,0.0050124,0.1935,0.42976,0.2274,0.006584,0.44219,0.19606,-0.40253,0.23023,-0.19646,0.19768,-0.71009,0.40065,-0.21589,0.24966,0.58263,-0.78469,-0.11862,-0.14042,0.21551,0.16972,-0.00096993,0.21197,0.62278,0.7247,0.31137,0.0025022,0.51758,0.62619,-0.91535,0.019061,-0.4207,0.3685,-0.54857,0.24742,-0.85943,0.054293,0.35326,0.043697,0.22726,0.38113,0.3151,-0.19861,0.51179,-0.48445,-0.39417,-0.30737,-0.451,-0.20222,-0.3848,-0.081889,0.44203,0.32191,0.14636,-0.45375,0.11099,0.1429,0.26471,0.25345,-0.26487,-0.075713,0.081684,-0.37598,-0.11632,0.13998,0.029877,-0.31175,-0.0047389,-0.4506,-0.5668,-0.035315,0.30409,0.53399,0.12283,0.051637,-0.94923,-0.07886,0.41762,-0.1673,-0.30164,0.3058,-0.18288,-0.08072,0.058217,0.23405,-0.25604,-0.13062,0.251,-0.22323,0.31011,0.044982,0.31177,0.14235,-0.10218,-0.22227,0.2648,0.57581,0.012673,-0.52591,-0.23756,-0.61487,-0.17152,0.267,-0.0059939,0.53286,0.40994,-0.38351,-0.24498,-0.044872,0.2382,-0.27054,0.20662,0.19022,-1.561,0.93489,-1.1179,-0.31668,-0.057899,0.42117,-0.13406,-0.20153,0.28548,0.4457,0.18589,-0.015685,-0.13609,-0.25452,-0.20412,-0.10949,-0.28141,0.18595,0.14252,0.0065661,0.21782,-0.064853,-0.17102,0.62589
newspaper,-0.30731,0.40698,0.15978,-0.23851,0.11478,-0.33148,-0.16375,0.090276,-0.30546,-1.593,0.081012,0.046304,0.65171,0.14675,0.58575,0.49443,0.36413,0.76972,0.058955,-0.5462,0.078288,0.083255,0.83422,0.62844,-0.19912,-0.60093,0.20201,0.15697,-0.0066392,-0.31632,-0.70907,-0.024628,0.0030171,0.54875,-1.0359,-0.6599,-0.44347,-0.17237,-0.14671,0.45143,-0.20683,-0.17665,0.47355,0.33784,0.2697,0.064733,0.65339,0.50384,-0.68904,0.015181,0.0038632,0.17816,0.20266,-0.085164,0.42443,0.55463,-0.1342,0.57391,0.042646,-0.88793,0.1915,0.24921,-0.095135,-0.23045,-0.033994,-0.10945,0.77589,-0.45033,-0.056628,-0.18127,0.2114,0.080445,-0.42624,-0.22808,-0.19197,0.2638,0.4448,0.26262,0.011841,0.71331,-0.39969,-0.078547,0.11368,-0.10891,-0.26517,0.089611,-0.83822,-0.38382,0.11283,0.65875,-0.28252,-0.080854,-0.13618,0.65602,-0.11629,0.34955,-0.098359,-0.12183,0.058244,-0.75016,0.28131,0.36287,0.031925,-0.015713,0.51682,0.15996,0.047611,0.13165,0.92477,0.55554,-0.22892,0.19504,0.20636,-0.65739,0.49585,-0.17538,-0.33855,0.15071,0.47088,-0.59578,0.60488,-0.19862,0.62376,-0.078651,0.17323,-0.033202,0.14734,0.057454,-0.19838,-0.094511,0.059822,-0.88238,0.062939,0.10601,-0.16006,0.42931,-0.8316,-0.15157,0.84772,0.086187,0.25563,0.10948,-0.40452,-0.26059,0.070594,0.10687,-0.096492,0.63715,0.006536,-0.025407,0.8782,0.10562,-0.34048,0.098951,-0.24235,-0.21037,-0.10921,0.34536,0.23657,-0.27087,0.37864,0.50699,-0.05422,-0.05232,-0.35791,0.052794,-0.12865,-0.39898,-0.21327,0.02013,-0.4929,-0.42364,-1.2933,-0.013177,0.22579,0.03834,0.29934,0.31652,0.15128,0.48794,0.55583,-0.009119,-0.2997,0.15797,-0.024838,-0.49874,-0.38237,-0.55904,-0.23284,-0.30029,-0.18292,0.41641,0.29659,0.27673,0.029955,0.58479,-0.010284,-0.6734,-0.65053,0.23692,0.014975,0.17852,-0.71972,0.13079,-0.50839,-0.12118,-0.6352,0.15899,0.14342,-0.28355,-0.16263,0.20227,0.041193,0.44046,0.41507,-0.29568,-0.41548,-0.5278,0.31739,0.36789,0.51894,0.66261,-0.27196,0.41114,0.085422,0.24937,-0.48686,0.43173,0.55771,-0.26676,-0.20575,0.026065,-0.4563,-0.16312,0.42077,-0.11446,0.013467,-0.064321,-0.50055,-0.68497,-0.14896,-0.24596,-0.20865,-0.57871,-0.13813,0.5132,0.15459,-0.22178,0.075648,0.45498,-0.062963,-0.18161,-0.22013,0.13456,1.3818,0.037353,0.55127,0.25513,0.22308,-1.2973,0.39211,0.20302,0.077299,-0.30263,0.27959,-0.61044,0.1965,0.31152,-0.27166,-0.23717,-0.39435,0.47546,0.19777,0.091959,0.20184,0.1593,-1.4239,0.18323,0.3973,0.45495,0.095992,0.045341,-0.3322,-0.38283,0.17005,-0.29825,0.8049,-0.028691,-0.12792,0.28475,0.0013832,0.40525,-0.43747,0.0018164,-0.094922,0.7497,0.046796,0.20435,-0.54124,-0.22636
dish,-0.068266,0.29429,0.37552,-0.21232,0.13611,-0.33491,-0.22208,0.055178,-0.13194,-0.6095,0.45064,-0.17202,-0.32587,0.51245,0.22253,-0.10252,-0.41759,0.18297,-0.015855,-0.51184,-0.37895,-0.16006,-0.27569,0.76894,-0.15374,-0.28617,0.08066,0.26068,0.22654,-1.027,-0.84335,0.35902,-0.83334,0.22095,-0.53062,0.56572,0.20417,-0.34159,-0.44618,0.29148,0.15322,-0.38661,0.1091,-0.017701,0.093428,0.33587,0.74696,0.35463,0.15167,0.39847,-0.01218,0.1745,0.69274,-0.17711,-0.55778,0.018007,0.26491,-0.10199,0.17381,0.26075,-0.23774,-0.0077654,0.44105,0.35344,-0.13999,0.053443,-0.089634,0.28741,-0.12815,0.40097,0.10219,0.067685,-0.014185,-0.36667,-0.62831,0.37965,0.5662,0.050085,-0.33163,-0.24431,-0.28996,0.66331,-0.55779,-0.45437,0.24226,0.17256,-0.54096,0.39705,-0.00087591,-0.69679,-0.2226,-0.085065,0.15398,0.30959,0.013575,-0.44626,-0.059276,0.31915,0.12736,0.24447,0.050874,-0.16401,0.035788,-0.26814,0.63199,0.061197,-0.22336,0.39782,-0.54414,0.45468,0.52523,0.38118,-0.1,-0.46089,-0.011906,-0.54207,-1.1623,0.1806,0.28197,-0.013015,0.046881,0.21748,0.59634,0.417,-0.20369,-0.18419,-0.081755,0.76104,-0.46907,0.80134,-0.1848,0.73637,0.10813,0.52675,0.40949,-0.28905,0.30597,0.66105,-0.17932,-0.24278,-0.15104,0.68519,0.13959,-0.21638,-0.85229,0.2848,-0.37067,-0.073021,0.06409,-0.24872,-0.71215,0.62713,0.35636,-0.35766,0.25629,-0.095304,-0.24355,-0.003126,-0.50239,-0.0019417,-0.035767,-0.031751,-0.12018,0.24655,0.49834,0.37144,0.066514,-0.46533,0.12272,-0.35587,-0.53508,-0.15533,-0.58336,-0.12552,-0.21511,0.33301,-0.19088,0.15144,0.39014,-0.9649,0.48525,0.095508,0.45706,-0.12763,-0.011187,-0.13945,0.85108,0.21597,-0.29854,-0.59919,0.36567,0.53336,-0.37179,0.090231,0.019017,-0.053536,-0.43149,0.1945,-0.64638,-0.54128,0.034905,-0.067855,0.29139,0.49969,0.093407,0.62373,0.28901,-0.040963,-0.24804,-0.09099,0.50156,-0.14165,0.13335,0.47682,-0.13121,0.2278,0.53467,-0.782,-0.22686,0.37824,0.45184,0.13118,-0.27883,-0.38477,0.11215,-0.17518,0.4617,-0.55938,0.58923,0.25535,0.38054,0.34569,-0.19555,0.38851,0.15994,0.2587,0.22757,0.0087239,-0.1314,-0.16473,0.17136,0.31522,0.078852,-0.32291,-0.92234,0.26413,-0.28312,0.38956,0.001913,-0.8297,0.71188,-0.050829,0.026396,0.60784,-0.0999,0.58671,-0.36877,0.13869,-0.64024,0.86364,-0.37148,-0.43345,0.20407,0.073949,0.053424,-0.26571,-0.083771,0.1736,1.0886,-0.14062,-0.23568,-0.40789,0.17971,0.18487,0.52902,0.088675,-1.1528,0.44009,-1.1568,-0.24643,0.11813,-0.081782,-0.45488,0.15367,-0.37499,0.070836,0.55732,-0.23615,0.43588,1.0527,0.15655,-0.075719,0.47681,-0.27838,0.17962,-0.99288,0.62308,-0.14735,-0.56794,-0.34886
door,-0.01249,0.10816,-0.24888,-0.69305,0.31267,0.12725,-0.55746,-0.12387,0.06741,-1.3958,-0.44799,0.31585,0.31542,-0.20747,-0.48489,-0.21377,0.070977,-0.42008,0.05906,0.1959,0.49559,0.54171,0.27497,-0.3098,0.00022559,-0.24526,0.64175,-0.20558,0.029499,-0.094673,0.24826,-0.037875,0.10342,0.081823,-0.74535,0.69096,-0.47305,-0.43549,-0.30689,-0.27948,-0.47731,-0.029868,-0.4712,0.13645,-0.35482,0.5277,0.46479,-0.65751,-0.79624,-0.23151,-0.20946,0.1856,0.22273,-0.45463,0.017325,0.075871,0.22356,0.084418,0.15647,-0.24355,0.3147,0.11246,0.045436,0.42812,-0.14958,-0.48297,0.48416,-0.43006,-0.00018754,-0.43617,-0.47689,-0.4994,0.14997,0.43192,0.34473,0.40252,-0.37553,-0.38429,-0.0081433,-0.57902,0.073898,0.47567,0.16123,0.45162,-0.56492,-0.35079,0.11869,-0.041999,-0.4881,-0.24078,0.14575,-0.26383,-0.26038,0.29627,0.15662,-0.40106,-0.46955,-0.37762,0.02064,-0.43759,0.089651,0.59544,-0.094022,-0.20714,0.12782,-0.44642,0.2323,0.063003,-0.23058,0.099256,-0.24348,0.22342,-0.12202,-0.097001,-0.25908,0.30416,-0.41647,0.060588,-0.33087,-0.11626,-0.18425,-0.51052,0.27844,-0.21617,-0.050306,-0.54686,0.15711,-0.19323,0.2827,-0.47514,0.77158,-0.034981,-0.019999,0.097275,0.16816,0.12563,-0.050475,0.18076,-0.11142,-0.21616,0.29195,-0.057786,-0.2505,0.078086,-0.65854,-0.20336,0.10717,-0.13603,0.061724,-0.11115,0.15556,0.071718,-0.0095785,-0.27587,0.14516,0.19027,0.39088,-0.12571,-0.19307,0.41315,0.4794,0.66196,-0.22623,-0.0089377,0.34952,0.41722,-0.07268,-0.00060268,0.73224,-0.53763,-0.26017,0.57159,0.26017,-0.16348,-0.026223,-0.12132,-0.26523,0.25732,0.10632,-0.46511,0.17401,-0.08063,0.040345,0.14809,0.071497,-0.4767,-0.04698,0.30917,0.50114,0.49812,0.18568,-0.23741,-0.0883,0.31509,0.23328,0.10718,-0.025941,0.010983,-0.52236,-0.36501,1.14,-0.078955,0.43664,-0.018633,0.12697,-0.40861,-0.097136,-0.70938,-0.27445,0.18805,0.22803,-0.06808,-0.31143,-0.13471,0.33667,-0.44144,-0.077656,0.27329,-0.01175,0.14856,0.539,0.34871,0.16946,-0.19878,-0.055828,-0.030485,-0.58586,0.26806,0.32037,-0.48814,0.21674,-0.89393,-0.27943,0.082785,0.54373,0.30641,0.079432,-0.34968,-0.37836,-0.02255,0.32161,0.23336,-0.2784,0.3476,0.057943,-0.5574,0.088998,-0.15989,-0.35752,0.34341,0.081236,-0.15284,0.11744,-0.3267,-0.068001,0.10999,0.19565,-0.21774,-0.12537,0.30411,0.03796,-0.398,0.4741,0.061004,-0.083459,-0.33121,0.26754,-0.18182,-0.25619,-0.24813,-0.30985,-0.11558,-0.47259,-0.15831,-0.13527,-0.060321,-2.1415,0.33702,-0.11064,0.14542,-0.54827,-0.093461,-0.17059,-0.25297,-0.032978,0.63479,0.10971,-0.13702,0.22243,-0.1171,-0.23065,-0.36059,0.2452,0.36432,-0.0022822,0.64303,0.1207,0.049559,0.051595,0.97932
leg,0.10577,-0.20827,-0.73931,-0.47198,0.14994,-0.098382,-0.12968,-0.07155,-0.20581,-0.85904,-0.10884,0.44259,-0.01182,-0.63069,-0.23316,0.81605,-0.42406,0.90269,-0.4997,-0.20626,-0.63907,-0.30814,-0.060502,-0.31268,-0.15518,0.068657,-0.018994,-0.21029,-0.73221,0.010334,-0.36691,0.39304,0.62639,0.10432,-1.3442,0.061608,0.16506,0.23163,-0.15855,0.78924,-0.40608,-0.65389,-0.39384,-0.93408,0.25339,0.32245,0.099388,-0.01442,-0.15879,0.30315,0.094857,-0.10037,-0.083715,0.58584,-0.12623,0.43832,-0.56248,-0.65892,0.0093525,0.89193,0.12536,-0.18992,-0.45311,0.054647,-0.0078488,0.088806,0.24614,-0.045132,0.31926,-0.32776,0.25291,0.31215,0.43329,0.10067,-0.27067,-0.31545,0.36755,-0.22047,-0.11455,0.24974,0.093068,0.19706,-0.11245,-0.27032,-0.83569,-0.53106,0.29633,-0.0682,0.25213,0.26105,0.68251,0.069131,0.48,0.065611,0.18509,-0.17957,-0.0022064,-0.0018953,0.13394,-0.43651,-0.042634,-0.079693,0.26195,-0.1662,0.06226,0.70354,0.55117,-0.21996,-0.37996,0.0029466,-0.20436,0.18312,-0.37541,-0.37971,0.61209,-0.58749,-0.5277,-0.20583,0.074344,-0.16441,-0.026195,-0.50381,0.20601,-0.63881,0.052937,0.47029,-0.13556,-0.94233,0.40407,-0.17968,0.23784,0.84963,0.049953,0.40325,-0.17595,-0.27339,0.14124,-0.22074,-0.10597,0.57663,-0.27564,-0.046607,-0.020691,-0.32558,-0.72388,0.34244,-0.15104,0.24722,-0.37514,0.11486,0.0072134,0.29428,-0.1089,-0.39963,0.47962,-0.50439,-0.4569,0.10816,-0.28067,0.17644,0.36201,-0.0092856,-0.20572,-0.36058,0.82386,0.57233,0.14022,-0.057208,0.53599,-0.017403,-0.0047202,-0.01471,0.38439,-0.41483,0.010309,-0.29759,-0.028778,1.0715,-0.093692,0.38042,0.27016,-0.17168,0.085901,-0.1012,-0.19483,0.40171,-0.37195,0.44626,0.0020259,0.11605,0.10854,0.66379,0.23115,0.30911,-0.02632,0.23032,0.20763,-0.46787,0.1125,0.75243,1.9731,0.0099175,-0.044119,0.039361,-0.18289,0.28832,-0.33375,-0.022691,-0.19547,-0.13181,0.064738,-0.36217,-0.34818,0.7303,0.55684,-0.087354,-0.073555,-0.84462,0.014927,-0.10147,0.032721,-0.092823,-0.14313,0.09785,0.01069,0.034145,0.21035,-0.77149,-1.2737,0.2187,0.31069,-0.020376,0.35668,-0.33882,0.53338,0.19077,-0.21118,-0.050676,0.79728,-0.15272,0.80617,-0.55238,-0.22151,0.25462,-0.36465,-0.052555,-0.12564,0.47034,-0.0031389,0.23856,0.022642,0.37849,0.29487,-0.80576,0.53763,0.42788,-0.11257,-0.48708,-0.29479,0.22371,0.27001,-0.75114,-0.41554,0.61642,-0.31782,0.016552,-0.020663,-0.50602,-0.71863,0.34381,-0.27391,-0.50313,-0.066209,0.26405,-0.038097,-0.55169,-0.90304,-0.24859,-0.52803,0.099802,-0.027996,0.12639,0.99092,0.3306,-0.13942,0.37191,-0.25414,-0.32116,-0.2877,-0.19735,-0.20456,0.69526,0.052693,0.27024,-0.40733,-0.21552,-0.038621,-0.20516,0.12367,0.26567
rock,-0.14924,0.021244,-0.3424,0.1308,0.32894,-0.37361,0.18362,-0.19164,-0.06143,-0.36491,-0.071517,-0.48084,0.52458,0.65721,0.59576,-0.43624,-0.47283,0.002881,0.83749,0.47435,0.0036429,0.74666,-0.35538,0.72698,-0.18289,-0.14543,-0.24578,0.066191,-0.46798,0.47998,-0.084808,-0.0024432,-0.49146,-0.15999,-0.10291,-0.10499,-0.32832,-0.4678,0.426,0.5042,-0.049971,0.23699,0.22838,0.47862,0.82059,0.79602,0.036734,-0.1644,-0.083443,0.027611,-0.24106,0.049695,-0.65823,0.80549,-0.072332,0.59452,-0.75328,0.071807,0.21376,-0.30292,0.47441,0.22219,0.88074,0.020281,0.22963,0.082287,0.49949,0.56457,-0.070466,0.55075,-0.056618,0.29224,-0.63124,0.46619,-0.46764,-0.028421,0.52878,0.15232,0.28859,-0.56641,-0.45747,-0.21535,0.26545,-0.12657,0.2924,-0.16621,0.41443,0.59966,-0.55888,0.020441,0.48456,0.80188,-0.078007,-0.04243,-0.23627,-0.21798,0.39006,-0.57642,0.28747,-0.72988,-0.42148,0.35624,0.4226,-0.45973,-0.20791,0.097943,-0.41051,0.21299,0.55264,-0.55186,0.33763,-0.61264,0.31486,-0.24909,0.48552,-0.084668,-0.25577,-0.039438,0.12269,-0.65551,0.16081,-0.052966,-0.55086,0.14896,-0.18477,0.03251,-0.027664,0.4221,-0.19461,0.039521,0.020284,0.37097,0.56062,-0.57816,0.28729,-0.43699,-0.16027,0.58374,0.24122,0.2452,-0.098792,-0.47047,0.080218,-0.57349,0.073508,-0.28832,-0.029131,0.26743,0.053245,0.30642,0.68351,-0.040871,-0.45268,-0.079146,0.82018,0.73204,0.30628,0.021162,0.4015,-0.047707,-0.0095559,-0.60604,-0.32061,0.17519,-0.29775,0.39218,0.12687,-0.075435,0.39391,-0.56339,0.57854,0.73058,0.27315,-0.015254,0.6136,0.35237,0.057994,0.21627,0.058605,0.22136,0.14386,0.23178,0.47008,-0.10776,-0.14723,-0.35029,0.18793,-0.03473,0.13091,0.034896,0.5054,0.50202,0.11156,-0.12456,0.25687,0.060609,-0.097073,-0.31715,0.27384,0.31203,2.2683,-0.25942,0.37038,0.21972,-0.47624,0.25214,0.38974,0.0090235,-0.32827,0.29782,-0.42126,0.012544,0.38804,0.48434,-0.081047,0.65669,0.36641,-0.23236,0.057353,-0.065558,0.20959,0.2564,0.053636,-0.38089,-0.44557,0.17526,-0.41488,-0.29418,-0.009781,0.16237,-0.1071,-0.012271,-0.5039,-0.47321,0.82806,-0.085168,-0.41903,-0.0067478,-0.69558,0.034515,-0.38669,0.17526,-0.01269,-0.33718,-0.83627,0.12447,-0.19233,-0.38408,-0.46749,0.30288,-0.14595,0.13768,-0.37465,-0.32624,0.25655,0.061949,0.63716,-0.46954,-0.17587,-0.27593,0.25956,-0.1514,0.10803,-0.16716,-0.11228,-0.18309,0.17873,0.24428,0.26395,-0.07078,-0.46309,-0.31235,0.25336,-0.53379,0.11985,0.29182,-1.5222,-0.23306,-0.077547,-0.14231,-0.54265,0.078718,-0.26975,0.48231,-0.44435,0.0059967,-0.74852,0.3491,0.67033,-0.21822,0.34382,0.10349,-0.42745,0.34726,0.36224,0.33798,0.22624,0.6468,-0.37239,-0.085055
ocean,0.12654,-0.64278,-0.45298,-0.01482,-0.14442,0.16746,-0.085392,-0.20653,0.58867,-1.4552,0.50849,0.11859,0.094727,-0.35716,0.0023545,0.24716,-0.099644,0.18471,-0.27065,0.91557,-0.53791,0.49689,-0.39529,0.09111,-0.32922,0.067927,0.36384,0.6876,-0.46816,-0.41416,0.71162,0.34765,-0.81837,-0.67352,0.44033,-0.053426,0.27713,0.022645,-0.036503,0.45222,-0.53126,0.076748,0.2145,0.157,0.061417,0.30464,0.80843,0.13985,0.38982,-0.18201,-0.032407,0.10731,0.56028,-0.66759,0.018634,0.42655,0.25388,0.15547,0.011796,0.283,-0.26325,0.36569,0.95695,-0.089697,0.43428,-0.2637,-0.52575,0.37261,-0.79395,0.24418,0.15395,0.27281,-0.26515,0.064414,-0.42912,-0.015013,0.048268,-0.51984,-0.30186,-0.002508,0.13848,0.23534,-0.60216,0.38053,-0.40376,0.021909,0.34569,0.32639,-0.054131,-1.0046,-0.12785,-0.31748,0.04249,-0.44551,-0.54162,0.47274,0.24969,-0.094885,-0.10793,0.064517,0.13905,0.6409,0.36692,-0.032632,0.08356,0.36835,0.43834,-0.28115,0.63295,-0.00020828,-0.17643,-0.7762,0.20099,0.22941,0.089192,0.043521,0.29474,0.171,-0.1639,-0.051145,-0.15406,-0.48799,-0.48511,0.41051,0.13077,0.16313,0.35169,-0.048752,0.04479,-0.020756,-0.37748,0.44076,0.46283,-0.0453,0.084274,0.073256,-0.0080333,0.024747,-0.35315,0.21003,0.23391,-0.016809,-0.098672,-0.11368,-0.66124,0.093041,0.25566,0.37712,0.059124,-0.030083,0.50825,0.0094352,0.40188,-0.66779,0.91501,-0.08253,-0.23313,-0.09046,-0.12218,-0.0016805,-0.079133,-0.71782,0.34776,-0.045976,-0.008703,-0.52795,0.51685,0.28729,-0.033634,1.166,0.086722,-0.16253,0.032501,-0.01036,-0.22214,0.00081795,-0.060859,0.20063,-0.1965,-0.58212,-0.38278,-0.022349,0.43615,0.49794,0.56512,-0.83788,0.5025,0.5317,-0.50088,-0.32481,0.1875,0.35206,0.046742,-0.59874,0.24626,0.39318,0.16115,-0.63691,-0.53225,0.0063615,1.0814,-0.29425,-0.26725,-0.3858,0.29645,0.15522,0.20024,0.081816,0.28841,0.038256,0.011337,0.18523,0.041637,-0.28792,-0.029788,-0.0041812,0.094206,-0.27948,0.14653,-0.31512,0.96574,0.11238,0.1009,-0.24089,-0.030713,-0.017717,-0.17703,-0.78777,-0.43104,0.083332,0.65787,-0.031237,-0.33506,0.018314,0.48897,-0.24356,-0.03322,0.024561,0.25753,-0.11743,-0.77091,0.34124,0.033815,0.22196,-0.52384,0.28841,0.10314,-0.055186,0.14131,0.24232,0.03917,0.0098976,0.2393,0.28714,-0.38287,0.018884,0.31576,-0.025749,0.1274,0.34133,-0.031354,-0.39798,-0.61834,-0.2168,0.24066,0.00036378,0.11814,0.048181,0.22829,0.012995,0.50102,0.047875,-0.11015,0.16912,0.74292,0.3602,-1.4232,0.70882,0.13768,-0.059761,-0.31013,0.70229,-0.30183,-0.41306,-0.30985,-0.39634,-0.2693,-0.37614,0.27676,-0.35539,-0.39281,0.3259,-0.46416,-0.029653,0.038693,0.36002,0.099722,0.0037377,0.34064,-0.18739
rocket,0.17588,0.29025,0.455,-0.39699,-0.711,0.26498,-0.1195,-0.03007,-0.092673,-1.5904,0.39354,-0.6074,0.25385,-0.059818,0.34903,1.1628,-0.15035,1.2943,-0.1118,-0.019964,-0.039326,-0.068316,-0.04029,-0.042734,0.012234,0.2467,0.5222,0.53205,-0.065426,-0.57531,0.52702,-0.27942,0.23856,0.34976,0.82027,-0.06604,-0.5292,-0.50716,0.37129,1.0317,0.20588,0.81819,0.15705,0.029203,-0.74835,0.20251,0.35849,-0.7856,0.265,-0.064201,0.29684,-0.37718,-0.318,0.41397,-0.738,-0.23032,-0.015801,-0.35574,0.05269,0.35117,-0.84023,0.29841,0.18292,-0.67199,-0.20106,0.80244,-0.7402,0.29467,0.18047,0.44511,0.48337,0.30372,0.11629,0.61424,0.085104,0.066095,0.53069,0.12098,0.30047,0.56175,-0.36607,0.52087,0.061269,0.73313,-0.11803,0.17709,-0.27771,0.5017,0.76192,-0.71309,0.86022,0.35159,0.14877,0.23692,0.10135,0.099284,-1.0098,0.19663,0.091499,-0.25572,-0.72304,0.56699,0.032379,0.052075,0.043957,-0.83892,-0.01567,-0.026817,0.24724,-0.14685,-0.56513,0.28967,0.39512,-0.2876,-0.033414,0.0097371,-0.65105,0.0025047,0.66415,-0.097749,0.62909,-0.48384,0.024665,-0.24505,-0.5033,-0.055475,-0.74757,0.44477,0.50242,0.50402,0.13736,0.58031,0.04029,-0.61267,0.19571,0.14182,-0.15347,0.19686,0.34653,0.07758,-0.27797,-0.41374,0.059104,-0.16915,-0.40858,0.27009,0.075547,0.032924,-0.33817,0.46453,-0.21416,0.2948,-0.45238,0.13691,0.31829,-0.38253,0.25204,0.040469,0.19333,0.37465,0.17646,-0.63134,0.26833,-0.17518,0.094709,-0.14482,-0.65993,0.35054,-0.24619,-0.81365,-0.47034,0.1633,0.56369,-0.06114,-0.23854,0.17445,-0.055578,0.01716,0.082704,0.16339,-0.41755,-0.53894,-0.066297,0.68935,0.2473,0.46668,-0.14801,0.27709,-0.41683,-0.23103,0.31266,-0.43275,-0.10986,0.23415,-0.16786,0.089204,0.12636,-0.14065,0.23484,-0.4436,0.54711,0.028818,0.1094,-0.31987,-0.0655,-0.30786,0.020993,-0.44373,0.19958,0.21529,0.020243,0.12423,-1.0453,-0.61932,0.24283,-0.58355,0.33845,0.24738,-0.59682,-0.3698,0.41123,-0.0018317,-0.058448,0.21537,-0.4279,0.72083,-0.096227,-0.85472,0.5368,-0.2191,-0.27496,0.37291,-0.47463,-0.43014,0.15234,0.70383,-0.024897,-0.14903,0.0037741,0.19545,0.30455,-0.27126,0.30532,0.043231,0.1435,-0.078304,0.15617,-0.033062,-0.18772,-0.34631,0.0053828,0.8357,-0.87139,-0.094672,0.46612,-0.35759,-0.4019,-0.83969,-0.033481,0.61612,0.073817,0.19175,-0.20871,-0.096776,0.12099,-0.032395,-0.68947,0.33215,0.26815,0.48819,0.36897,0.070211,-0.065435,-0.024527,-0.057286,-0.33763,-1.9496,-0.42445,-0.361,-0.21035,-0.25428,0.49753,-0.087954,0.097554,-0.3048,0.043409,-0.31314,0.39327,0.39694,0.045342,-0.14379,-0.73449,-0.023872,-0.16375,0.53855,1.0554,-0.67533,-0.14477,-0.06525,0.2779
oven,0.55154,-0.1068,0.18228,-0.3402,-0.36031,-0.48167,0.0057311,-0.60257,0.25279,-0.54595,-0.11374,0.45414,0.52241,0.65989,-0.60388,0.22074,-0.27942,-0.012111,-0.16249,-0.33408,0.489,-0.35756,0.021432,0.21794,0.56311,-0.26267,0.024441,0.51643,-0.058784,-0.89664,-0.33504,0.80598,-0.056403,-0.90422,-0.017635,0.32299,-0.057611,0.20217,-0.0090756,0.52855,1.0116,0.16718,-0.23793,-0.31618,0.68608,0.28321,0.89379,0.10773,0.18107,0.18393,0.63461,0.043412,0.57836,-0.50656,-0.053085,-0.13315,0.13118,-0.35607,0.088004,0.96406,0.32927,0.056117,0.18764,-0.37617,-0.48432,-0.20553,0.556,0.054195,-0.44233,0.28213,0.41366,0.0069019,0.71221,-0.40017,-0.30406,0.48075,-0.015799,-0.25563,-0.099993,-0.70665,0.058458,0.094236,-0.21569,-0.51789,0.32977,-0.17248,-0.14255,0.64062,-0.82903,-0.058239,-0.25969,-0.043809,-0.42011,0.73484,-0.18709,-0.67623,-0.79691,0.46607,-0.48663,-0.26966,-0.57811,-0.10361,0.0084164,-0.55843,0.1038,-0.4998,0.60924,0.70563,-0.17096,0.99665,0.50977,0.005103,0.14549,-0.14934,-0.46004,0.20744,-1.4698,0.29548,0.23092,-0.15997,-0.084791,0.31778,-0.17872,0.22702,-0.65958,1.0922,0.20785,0.06396,-0.69759,0.57452,0.7287,1.02,0.093248,0.36979,0.34056,-0.31813,-0.2977,0.42877,-0.2043,0.18003,0.54919,0.45577,-0.25489,-0.066648,-0.54021,-0.21312,-0.066364,0.27253,0.42574,-0.6811,-0.28259,0.4345,0.14749,-0.75059,0.37364,0.37809,0.05372,0.098385,-0.70126,-0.31321,-0.35709,0.15892,-0.50185,-0.13647,0.11429,0.42002,0.26385,0.052507,0.62414,-0.87448,-0.34513,0.6797,-0.0080507,-0.30227,0.069219,0.2776,-0.16866,-0.2976,-0.003835,-1.1371,-0.37267,-0.26302,1.4424,-0.31117,-0.1996,-0.20399,1.1415,0.64962,-0.21365,0.313,0.42086,0.80192,-0.088805,0.39926,0.023363,-0.15985,-0.76101,0.54528,-0.12799,-0.52275,-0.047047,0.22419,0.39097,0.7045,0.014112,-0.55505,0.38648,-0.82224,-0.033588,0.19096,0.70128,-0.26639,-0.18308,-0.24899,-0.098049,-0.023687,0.2757,-0.79625,-0.56189,-0.45193,0.094486,0.39817,-0.15494,0.016033,-0.27085,-0.73579,-0.19366,0.1914,1.0909,-0.39877,0.28134,0.19973,-0.11934,-0.15025,-0.24331,0.57089,0.31131,0.84294,-0.83638,-0.17558,-0.21596,-0.17549,-0.41441,0.2076,-0.37697,0.024305,1.1508,-0.16112,0.003267,-1.2064,0.22182,-0.42919,-0.039995,0.45455,-0.2116,0.53985,0.073568,-0.26447,-0.060834,0.55427,0.15894,-0.5509,-0.70314,0.11378,0.24234,0.14361,-0.30745,0.07132,1.1721,0.16615,-0.57971,-0.51024,0.40984,0.8884,0.48676,0.43832,-0.71411,0.054798,-1.8309,-0.26789,-0.46183,-0.32635,-0.66075,-0.3931,-0.11292,0.98851,0.76677,-0.18781,0.24824,0.50501,-0.56742,-0.34538,0.31584,-0.0070721,0.054476,-0.57767,-0.047899,0.10722,-0.4982,1.3825
toe,-0.24476,-0.06779,-0.21312,-0.17499,0.0582,-0.41344,0.0075277,0.11473,-0.079924,-0.32533,-0.67432,-0.38187,-0.42904,0.15344,0.48645,-0.43067,0.4919,0.99182,0.10179,0.17076,0.021708,-0.18587,0.34863,-0.16372,0.18946,0.21554,0.18885,-0.43394,0.32769,0.38137,0.13344,-0.18315,-0.0089372,-0.15654,-0.75959,-0.066201,-0.12673,-0.24733,0.25287,0.1786,0.24569,-0.060107,-0.14461,-0.33406,-0.44921,0.47111,0.65291,-0.11717,-0.15786,0.70588,-0.12325,0.19664,0.3005,-0.17586,0.10275,0.19718,-0.17051,-0.048207,0.13042,0.40225,0.43209,-0.25658,-1.1074,0.056507,-0.0096271,-0.32393,0.58833,-0.2792,0.51757,0.048037,-0.27636,0.12347,0.22909,-0.015992,0.063516,-0.84058,0.63133,-0.36043,-0.32498,0.70225,0.11648,-0.34228,0.14997,-0.24958,0.25335,-0.016169,0.36866,-0.17499,-0.15295,-0.61426,-0.25123,0.38632,0.50931,0.090419,0.22528,-0.16084,-0.37,0.030441,0.28915,0.041682,-0.052576,0.29835,-1.0887,-0.034963,-0.17765,0.15703,0.4233,-0.1321,-0.54804,-0.49728,0.24835,-0.24724,-0.8798,-0.29548,-0.20982,0.28127,-0.6663,-0.36175,0.0052764,0.095216,-0.26039,-0.73194,0.54385,-0.63438,-0.039286,0.012949,-0.74045,-0.18435,0.13006,-0.24854,0.38606,0.69061,-0.093208,0.6097,-0.49713,-0.65633,-0.11442,-0.26511,-0.46496,0.044528,0.12661,0.19868,-0.5907,-0.097489,-0.43969,0.66356,-0.14212,0.31248,0.043857,0.8112,0.025107,0.035585,-0.53329,-0.7852,0.089742,-0.45164,0.25151,-0.68882,0.68343,0.41225,0.49787,0.10337,-0.086405,-0.40481,0.80921,-0.073606,-0.0097222,0.41078,0.53455,0.051605,-0.18545,0.33982,0.29045,-0.51475,0.061219,-0.23199,0.24427,0.89073,-0.31751,-0.35478,0.45597,0.93277,0.25681,-0.25267,-0.17712,-0.26273,0.23931,0.30309,0.25794,0.010236,-0.42317,-0.050829,0.3767,0.55924,0.33781,0.63587,-0.14077,-0.39333,0.43547,0.35288,1.1239,0.27248,0.44168,0.24588,0.0086926,0.34515,-0.2404,0.15117,0.40933,0.35622,0.092366,-0.45854,0.053427,0.088094,0.50075,-0.1409,0.14416,-0.63155,-0.32809,-0.22876,-0.083174,0.30169,0.54321,0.25634,0.12255,0.12678,-0.58514,-0.019231,0.054412,0.43647,0.58255,-0.1503,-0.075297,-0.19554,-0.19267,0.063751,-0.48849,-0.018185,0.22266,-0.25978,0.4611,-0.45282,0.086724,0.31361,-0.1996,0.10515,-0.030552,-0.0017303,0.019876,-0.32886,0.10374,0.37656,0.28789,-0.59952,-0.49675,-0.094257,-0.34288,0.026009,-0.088685,0.58288,-0.30998,0.12251,0.26065,0.41873,-0.74509,-0.30691,-1.0282,0.097228,-0.757,0.41239,0.24084,-0.46108,-0.28445,0.07292,-1.1077,-0.34756,-0.72907,0.18197,-0.59756,0.27329,0.34056,-0.032874,-0.076715,0.43558,-0.19087,0.28312,0.081827,0.5292,-0.62276,-0.57858,0.37789,0.52268,0.40664,0.12987,-0.55349,-0.91994,0.7454,0.10162,0.29813,-0.19952
skin,0.3569,-0.072481,-0.029688,-0.43204,-0.12535,-0.68703,-0.2214,0.02415,0.62863,-1.8235,-0.39706,-0.17423,-0.53991,0.03827,-0.31459,0.1995,-0.11866,0.42575,-0.6583,-0.055693,-0.39398,-0.13451,0.029965,0.39261,-0.67899,0.17217,0.21753,-0.18893,-0.14363,0.16168,-0.48967,0.6692,-0.90404,-0.53446,-0.16172,0.36681,-0.28004,0.34751,0.17159,0.18862,0.2117,-0.23573,0.019065,-0.85692,0.21203,0.10053,0.31059,-0.2321,-0.26952,-0.42068,-0.20966,-0.26886,0.97052,0.37869,-0.27615,0.053328,0.003352,-0.43199,0.34443,0.16596,0.047155,0.040776,0.0078466,0.33073,0.50181,-0.64962,0.29948,-0.12441,0.14721,0.18718,0.36716,0.29669,0.56603,0.19812,0.16027,-0.47894,0.045979,-0.36059,0.24781,-0.14139,-0.17222,-0.046888,-0.13324,-0.63,-0.61939,0.54377,-0.25515,-0.0916,-0.7377,0.23271,-0.68069,-0.0057234,-0.11812,0.32005,-0.064033,0.13227,-0.44929,0.37438,0.64109,-0.65698,0.2555,-0.56975,0.20765,-0.20902,-0.19878,0.20152,0.46629,-0.007978,-0.60465,0.057348,0.48719,0.75253,-0.078053,-0.071407,0.079551,-0.065297,-0.33479,1.004,-0.37807,-0.21731,-0.45578,-1.161,-0.15598,0.7809,-0.38022,0.16195,-0.47777,0.42265,0.28179,-0.024833,0.43983,-0.11561,0.44388,0.74311,-0.56538,-0.22917,-0.28609,-0.048027,0.19124,0.52741,0.56091,0.0082335,0.050332,-0.31451,0.081403,0.51517,-0.25245,0.53104,-0.33691,0.23556,-0.25829,0.034076,-0.040192,-0.43779,0.34862,-0.3152,-0.26211,0.30289,0.065441,0.47752,-0.041811,-0.54149,0.01383,0.047337,0.10214,-0.14802,0.19758,0.10082,0.58587,0.032977,-0.1947,0.52422,0.068245,-0.025325,-0.19409,-0.58184,-0.063714,-0.14163,0.38831,-0.72043,0.052158,-0.18596,-0.30764,-0.75163,-0.60123,-0.39145,0.86254,-0.51851,-0.32232,-0.21747,0.25134,0.84126,-0.20029,0.31922,0.32769,0.27049,0.36044,-0.22961,-0.70579,0.18319,0.82639,0.33295,0.42434,0.17114,0.19694,0.83058,-0.28045,0.50893,-0.58373,0.17752,0.21119,-0.21292,-0.41138,0.11826,0.30675,-0.4988,1.4552,-0.54073,0.22327,-0.16987,-0.096053,-0.43729,-0.14973,-0.12975,-0.19834,0.19072,-0.60361,0.64578,-0.16848,0.19513,0.80732,0.11281,0.40796,-0.31928,-0.2817,-0.90612,0.02118,-0.28263,-0.54346,-0.11583,0.24618,-0.51128,0.083808,0.22538,-1.2451,0.33573,0.34485,0.1855,-0.02718,-0.60262,-0.54843,0.027262,0.34764,-0.13284,0.64528,0.26022,0.2772,0.074608,-0.18456,0.45163,0.018693,-0.46201,-0.16526,-0.40059,-0.17956,-0.018037,0.26943,0.24588,-0.47865,0.4377,0.20319,-0.031164,0.12219,-0.1461,-0.50741,0.18481,-0.66684,-0.34702,-1.1551,0.54963,-0.10468,-0.26324,0.27191,1.0778,-0.41328,0.6628,-0.28906,-0.092788,0.5144,0.32009,-0.12183,-0.3365,-0.45676,0.039987,-0.67903,-0.48014,0.20224,0.36967,0.12956,0.34712
winter,-0.41479,-0.24125,-0.1271,-0.012053,-0.11727,0.72648,0.033299,0.5252,-0.66962,-0.58871,-0.042836,-0.017162,-0.18618,0.36981,-0.64975,-0.38556,0.19607,-0.036555,0.23789,0.28025,-0.45794,-0.07364,0.21564,0.10202,0.4322,-0.52985,0.63621,0.0022845,-0.21978,0.18129,0.59264,-0.12451,-0.45041,-0.21814,-0.78069,0.060971,-0.10755,0.037414,-0.30017,0.15998,0.15731,-0.25682,-0.011388,0.092761,0.13297,-0.036888,0.054189,0.21944,0.071847,0.751,-0.23261,0.12458,-0.13296,-0.67829,-0.051161,0.50487,-0.060391,-0.54386,0.45634,0.7716,-0.5972,0.21869,0.18493,-0.56412,-0.65987,-0.31406,-0.71559,-0.029538,-0.12761,-0.43585,0.045866,0.27589,-0.88438,-0.25475,-1.2342,-0.15906,-0.0085039,0.053406,0.090173,-0.042772,0.13727,0.53861,-0.41912,-0.21777,-0.0016614,0.082489,-0.27432,0.050298,-0.19897,-0.029378,-0.16271,0.023964,0.02402,-0.9653,0.32966,0.51101,0.2027,-0.16338,0.10515,0.41682,-0.063475,-0.27447,-0.60174,0.62367,-0.64907,-0.052713,-0.074254,0.12916,-0.16883,0.62687,0.18287,-0.1061,-0.20396,-0.030747,-0.2515,-0.43846,-0.057712,0.11765,0.033037,-0.37145,-0.622,-0.31028,-0.20525,0.29458,0.44538,0.74711,-0.01601,0.33967,0.30595,-0.5495,-0.41989,0.88764,-0.063047,-0.022884,0.22315,0.1496,-0.56987,0.39052,0.23703,0.20091,-0.13731,0.3637,-0.31053,0.18279,-0.55555,0.62673,0.88297,-0.17578,0.19173,0.30023,0.35503,0.055892,-0.17421,-0.35756,0.68463,-0.61863,-0.35285,-0.15913,-0.51747,0.14048,0.065306,-0.71464,0.080569,-0.12802,0.13787,0.5685,0.12135,-0.07352,1.0605,0.12567,-0.22974,0.64334,-0.78992,0.39132,0.18564,0.96598,0.99109,-0.40213,-0.14521,0.65602,-0.31797,-0.091843,-0.070249,0.12095,0.50308,0.64516,0.25715,-0.27652,-0.8948,-0.22238,-0.39924,-0.07447,-0.34954,-0.54198,-0.55665,-0.096938,-0.041452,0.01978,0.24625,0.37819,0.78463,-0.15273,0.16713,0.13797,0.20597,-0.33258,-0.14308,0.091716,-0.042729,-0.22833,0.096952,-0.3043,0.25677,0.0038295,0.077202,-0.23962,0.59321,-0.19897,-0.028948,-0.56017,1.2142,-0.63047,-0.26605,-0.067647,0.24868,-0.042323,-0.027628,0.16891,0.15156,-0.62064,0.15188,0.016854,0.33533,-0.61666,-0.13022,-0.20971,0.09896,-0.50366,-0.039126,-0.12493,-0.31644,-0.022413,-0.29159,-0.23462,-1.0188,-0.32395,-0.0094136,-0.065443,-0.27668,-0.36638,-0.21689,0.70635,0.07405,0.072716,0.49498,-0.11984,0.3203,-0.42408,0.057664,0.16363,-0.43647,-0.37383,0.062902,0.28111,-0.28589,0.074298,0.12767,0.23681,0.56204,-0.11842,0.11248,0.13011,-0.44849,0.071215,0.42721,0.047241,-1.8658,-0.49583,-0.081516,-0.039403,-0.4658,-0.35109,0.27064,0.26885,-0.11566,0.30825,0.19084,0.40638,-0.43665,-0.45179,-0.30782,0.087335,-0.25693,0.4169,-0.22599,-0.2519,0.17245,0.25723,0.38346,0.22274
book,0.048733,-0.055083,0.14947,-0.11269,0.098791,0.54334,-0.51204,0.27882,0.11497,-1.3397,0.41168,-0.14742,0.38694,-0.0082414,-0.03349,-0.057761,0.022663,0.1058,0.010694,-0.077614,0.05708,0.54646,-0.24267,0.69789,0.31597,0.069026,0.033726,-0.10927,0.19253,-0.22226,-0.11307,0.43938,-0.60905,0.11049,-1.4081,0.37343,-0.38587,-0.31585,-0.2864,-0.33769,0.44443,-0.14013,-0.40929,0.59492,-0.076971,0.085855,0.11559,0.38694,-0.64595,0.14493,0.43865,-0.015834,0.20396,0.086829,-0.061201,0.11602,-0.62238,-0.36196,0.065653,-0.2465,0.1282,0.20121,0.57196,-0.13376,0.13502,-0.33951,0.24845,-0.29434,-0.02516,0.031967,0.70872,-0.31889,0.47452,-0.10868,-0.3137,-0.22795,0.2813,-0.18027,-0.12676,-0.36075,0.12622,0.27788,0.32232,0.049936,-0.16924,0.14825,0.19698,0.63745,0.079854,-0.16855,-0.3462,-0.22142,-0.15442,-0.10825,0.27252,0.27918,-0.155,0.60103,-0.22772,-0.71485,0.43519,-0.062915,-0.053097,0.0017236,-0.15239,-0.77073,0.54348,0.66172,0.37839,-0.39163,-0.0077152,0.15246,0.19383,-0.16702,-0.069283,-0.025211,-0.17964,0.04438,0.17526,-0.96582,-0.1045,0.05718,-0.41323,-0.3298,0.019055,-0.019054,-0.20477,-0.13634,-0.33033,-0.35216,0.29539,0.089735,-0.042084,-0.19264,0.022383,-0.20603,-0.086592,-0.024302,-0.49677,0.41228,0.34379,0.041339,-0.027497,0.13265,0.13722,0.019751,0.14309,0.32123,0.1659,0.44638,-0.0079488,0.0066521,-0.47416,-0.28036,-0.12137,-0.3882,-0.42015,-0.013072,0.18059,-0.22993,0.35411,0.10779,0.6287,0.36617,-0.38015,0.40377,0.18683,0.30018,-0.17885,0.22203,0.026145,-0.65242,-1.3714,-0.15032,0.023779,-0.16982,0.096136,0.25005,-0.092247,-0.15785,-0.0077791,-0.29607,-0.31178,-0.32043,0.30184,-0.078093,-0.62673,-0.056443,0.2064,0.21789,-0.40171,0.62907,0.21922,-0.37584,-0.48331,-0.021337,-0.591,0.038486,-0.66271,0.060358,0.6669,0.08867,-0.2916,-0.21274,0.36202,-0.35946,-0.40505,0.23657,-0.08588,-0.18173,-0.31783,-0.73384,0.20424,0.26053,-0.14952,0.2252,-0.45435,0.27584,0.079118,0.098751,-0.13459,0.16389,-0.83314,0.1374,0.16486,-0.132,-0.053984,0.40875,-0.062869,-0.43362,-0.21252,-0.39647,-1.0162,0.29091,-0.03824,0.017988,-0.13284,-0.28344,-0.45818,-0.18828,0.062213,-0.16897,0.01204,-0.38081,-0.81699,-0.21886,-0.68126,-0.083483,-0.02833,0.25576,-0.33616,-0.36663,-0.11254,0.094205,0.61923,0.13938,0.3527,-0.27793,0.45623,-0.317,0.14768,0.17775,0.029573,-0.33501,-0.0057215,-0.050497,-0.24139,-0.25869,0.13273,0.38003,-0.3212,-0.16492,0.55088,-0.023246,0.1446,0.1248,-1.3349,-0.29422,0.59184,0.14384,-0.057715,-0.034459,-0.22582,-0.16592,-0.10082,0.29078,-0.51788,0.11263,0.0020016,0.29779,-0.11647,-0.07208,-0.41821,0.39238,-0.01703,-0.031026,0.25428,0.51352,0.13667,-0.12639
tights,-0.16136,-0.82242,0.20977,0.064761,0.062733,0.24304,-0.46815,-0.0064076,-0.15981,0.1513,0.12789,0.51996,-0.13805,0.095574,0.27248,-0.31151,0.82218,0.061585,-0.22344,0.16779,-0.15608,0.019625,-0.050321,-0.20472,0.21008,-0.24759,0.21227,-0.041545,-0.38831,0.54092,0.14859,-0.52741,-0.2488,-0.16317,0.44725,0.28226,-0.83881,0.35985,0.60721,0.32423,-0.12259,-0.13912,-0.22097,-0.38372,0.26908,-0.37578,0.53186,-0.13251,-0.53835,0.10476,-0.009674,-0.034741,0.27705,-0.48693,0.093092,0.28964,-0.011139,-0.25692,-0.72185,0.017945,0.44296,-0.90339,-0.56418,-0.14303,-0.25797,-0.082542,0.16696,-0.4478,0.39111,-0.2543,-0.055642,0.13272,-0.41771,-0.18005,0.46761,0.089388,0.14552,0.12955,-0.078378,-0.35259,0.25295,-0.14309,0.40115,-0.45558,0.094676,0.27743,1.2136,-0.088325,-0.22668,0.4363,-0.57886,0.31369,0.39513,0.64343,-0.58845,0.53505,-0.17202,0.63567,-0.35725,0.19407,0.79768,0.31647,-0.13535,0.10888,-0.18329,0.43705,0.24374,0.032963,-0.068729,-0.51819,0.15088,0.2017,-0.10316,-0.28546,-0.059582,0.017519,0.28432,0.19798,0.1783,-0.086059,0.40517,-0.11657,0.62462,0.17291,-0.015284,-0.10307,0.2573,0.30325,-0.15516,-0.11337,-0.047058,-0.38983,-0.22541,0.19053,-0.08578,-0.052671,-0.89243,-0.058675,-0.048567,0.3403,-0.019451,-0.26163,0.409,-0.36136,0.0094684,0.19989,-0.39144,0.35819,0.23019,-0.2588,-0.22801,-0.47781,0.13333,-0.71184,0.17482,-0.44553,0.14779,-0.39065,0.069424,0.51685,-0.13383,-0.85627,-0.0077821,0.10711,0.30511,-0.43291,-0.46675,0.87365,0.2561,-0.25231,0.33078,-0.33089,-0.34265,-0.22815,-0.21739,-0.67857,0.026095,0.97517,-0.19744,-0.55157,0.0071327,-0.025271,0.095851,-0.44179,0.24602,-0.31386,0.80494,0.67623,0.0027632,-0.98887,0.059154,-0.30567,0.44779,-0.18977,0.15404,0.14389,-0.80749,-0.055784,0.54628,-0.2273,0.32016,0.37828,0.2173,0.32129,0.52534,0.30761,-0.21556,0.25992,-0.49513,-0.21156,-0.44466,-0.13752,-0.51558,0.20161,0.537,0.05138,0.49295,-0.70983,-0.077515,-0.73316,-0.33229,-0.20346,0.15591,0.068156,-0.15372,-0.42585,-0.11172,0.34811,-0.70776,-0.45507,0.35165,0.069339,0.0868,-0.38325,0.3683,-0.16323,-0.31787,0.1221,-0.30929,0.032022,-0.13592,-0.23525,-0.39685,0.72228,-0.19623,0.27382,0.48909,-1.0018,0.54056,-0.77866,-0.2289,0.45513,0.1343,-0.43246,0.15062,-0.29828,0.048582,0.9627,0.088677,-0.084988,0.19731,0.2819,0.21648,-0.19318,0.088323,-0.099172,-0.24442,0.37075,-0.67607,0.68108,0.33086,0.41987,-0.13125,0.097928,-0.65507,0.29497,0.49345,-0.69294,-0.92922,0.15467,0.55888,-0.050182,0.072242,0.47538,-0.092269,0.65295,-0.32972,0.61251,-0.023702,-0.98818,-0.1439,0.53116,-0.14418,0.70911,-0.51925,-1.2997,0.25627,0.11512,0.86206,0.33158
clothes,-0.17869,-0.24797,-0.30102,-0.12793,-0.15005,0.03686,0.38254,0.32255,0.22106,-1.669,-0.00063079,-0.32645,0.25981,0.49454,0.04697,-0.75705,0.53041,-0.28328,0.046879,-0.03711,0.18803,-0.04232,0.34725,-0.22624,0.077676,-0.3522,0.037443,0.033577,0.69583,0.20543,0.091348,0.21846,-0.51202,0.30293,-0.71594,0.55942,-0.16318,-0.27539,0.010879,-0.41271,0.088229,-1.159,0.074887,-0.586,0.08147,0.31924,0.59476,-0.23608,0.27148,-0.11901,0.032488,-0.26616,0.35896,-0.30235,-0.34726,-0.26106,-0.53798,-0.70817,-0.047836,-0.25652,-0.050348,-0.46051,0.22564,0.16598,-0.25677,-0.43752,-0.45839,-0.080539,-0.25741,0.20105,-0.046246,-0.26942,-0.37311,-0.20926,0.34881,-0.21765,-0.018316,-0.17449,0.019364,-0.35866,-0.097596,-0.042012,-0.28747,0.29432,-0.097507,-0.0091444,-0.19257,-0.11111,-0.15895,0.33661,-0.098548,-0.080618,-0.09684,-0.070187,-0.11024,-0.12744,0.18774,-0.57069,0.45152,-0.12849,0.061676,0.14541,-0.48383,0.18663,-0.2049,-0.44856,0.24368,0.084058,-0.22407,-0.17656,-0.29795,0.49495,-0.17771,-0.090906,0.091316,0.50366,0.23516,0.53232,0.38354,-0.8105,0.068071,0.2758,0.6527,0.6302,-0.30604,0.39382,-0.19013,-0.006872,0.39426,0.18345,-0.0027385,-0.25946,0.19713,0.1326,-0.43651,0.35868,0.306,-0.12359,-0.10778,0.27175,-0.062606,-0.06289,0.63029,-0.18119,-0.33391,0.44729,0.1864,0.63687,0.12203,-0.32653,-0.19348,0.36582,-0.30164,-1.0664,0.075467,-0.17969,-0.3705,-0.32893,0.59115,0.28043,0.44204,-0.75587,-0.34262,-0.068262,0.045538,0.045136,0.40989,0.6749,0.41806,0.063005,0.061822,0.34576,-0.52403,0.1434,-0.46626,0.15253,0.19486,0.11103,-0.13047,-0.23731,0.071364,-0.34034,0.24094,0.1253,0.34074,0.57248,0.62375,0.40106,0.22248,-0.4256,0.14985,-0.0921,-0.6617,0.094492,-0.11706,0.18546,-1.074,-0.025388,-0.5048,0.26939,0.26613,-0.31625,0.62115,0.83659,0.70979,-0.43772,0.35865,0.66123,-0.88612,-0.63749,-0.30015,0.36244,-0.24623,0.6464,0.37248,0.020393,0.94876,-0.66654,0.10411,-0.22513,0.37156,0.035449,0.070521,0.15893,0.23734,0.20447,-0.2082,0.07639,0.21529,0.10535,0.54207,-0.36168,-0.37142,0.071032,0.64784,0.088095,0.13776,-0.13579,-0.77667,0.36797,0.42233,-0.030087,-0.21183,0.79919,-0.029898,0.27242,0.14501,-0.12777,-0.046311,0.1202,0.38687,0.1126,0.18234,-0.35191,0.70463,0.22046,-0.25868,0.22023,-0.14282,-0.34052,-0.035561,-0.73886,-0.3005,-0.16393,-0.17944,-0.14629,-0.21253,0.25047,-0.16254,0.21812,0.12387,-0.11433,-0.12083,-0.43313,-0.22172,0.19195,-1.4454,0.017273,-0.73144,-0.14734,0.36212,0.13552,0.68811,0.052441,-0.26748,0.92304,0.3886,0.45301,-0.034133,-0.25284,-0.031572,0.09931,-0.07377,0.76522,-0.1388,-0.69897,0.34774,0.49619,0.45694,0.35918
